hidden_bias -> hidden
-0.346750 -0.581069 -0.148365 0.425343 0.519680 0.327147 0.316439 0.672894 -0.742383 -0.236723 -0.885120 0.021843 -0.772898 -0.577001 -0.241653 -0.208528 -0.099208 -0.756556 0.138356 -0.390897 -0.420816 -0.044421 0.158456 -0.329768 0.435722 -0.201038 -0.082097 0.373460 0.513746 -0.821247 -0.466528 0.069139 -0.932286 -0.176245 0.060486 0.062011 -0.633954 0.241647 0.049407 -0.473113 0.087472 -0.636828 -0.091866 -0.245909 -0.227958 -1.087787 0.674320 -0.785138 -0.910376 -0.288263 -0.543276 0.223941 -0.163234 0.412665 0.027153 -0.030563 0.153285 -0.334057 -1.048735 0.131947 -1.407771 -0.418641 -0.967241 -0.468082 -0.246801 -0.395573 -0.509646 -0.123100 0.596859 -0.121487 0.134919 0.063379 0.101726 0.874848 -0.134232 -0.872216 0.476108 -0.898766 -1.106415 0.272464 -0.340656 -1.498294 -0.417784 -0.181059 0.132944 -1.147786 0.218247 0.265045 -0.578448 1.098438 -0.388104 -1.121861 -1.500562 0.177494 0.136021 -0.002856 0.474986 -0.547041 -0.807991 0.526649
input -> hidden
-0.578004 0.354271 -0.169463 0.001824 0.174487 -0.288780 0.494241 0.625016 -0.029182 0.477124 0.133213 -0.205992 0.272409 0.067691 -1.072187 0.084629 0.044242 0.851236 0.237629 0.188132 -0.217532 0.193552 0.441471 -0.353780 -0.523384 -0.260387 -0.175349 -0.087653 0.106983 0.038591 -0.061675 -0.203125 0.193756 0.127395 -0.852486 0.411719 -0.267100 -0.403913 -0.164358 -0.148856 0.077304 -0.076340 0.137159 0.112449 -0.686202 0.349233 0.893474 -0.119468 0.014103 0.519461 0.130501 -0.093343 -0.004899 0.010087 -0.554056 0.021011 0.273386 0.010071 0.562862 -0.360801 -0.501315 -0.673802 0.305843 -0.240535 -0.516215 0.024711 -0.135604 -0.646693 -1.091222 -0.561958 -0.175390 0.580549 0.368445 -0.057960 -0.588873 -0.509679 0.663705 -0.500683 1.012163 -0.373526 -0.184108 0.773792 -0.142837 -0.710450 -0.492633 0.143042 0.045350 0.341584 0.248122 0.172202 -0.566729 0.987232 1.108812 0.576222 -0.364593 0.263778 -0.045513 -0.011609 0.774915 0.216796
1.477605 2.821514 0.773470 -1.348186 2.725190 1.095259 3.162366 -0.006918 -1.048771 -2.224031 1.148692 0.483266 -1.346967 -0.991918 2.799149 -1.331908 -1.676255 0.382691 -0.482393 -0.832021 -0.286048 -0.161075 1.755099 0.351486 -1.858473 2.264301 2.873298 -1.756626 2.061065 0.091337 1.481403 -1.513630 -0.731796 -3.128339 1.814634 2.219307 0.388055 3.059383 1.901080 -0.033749 -2.185758 2.157130 1.998973 -0.716763 -0.356463 1.462980 -3.644321 0.339058 -2.948272 -2.173536 -2.214667 1.286813 1.671586 -0.208166 1.698219 0.673731 -0.482149 1.436569 0.154879 0.282270 -0.067502 2.014006 -0.442387 3.064887 1.953669 -0.289652 0.109159 0.051833 -1.145608 -0.632555 -0.022146 -2.542883 2.265760 3.641600 1.468394 0.209095 -0.811738 1.242520 -2.693757 2.085634 2.654619 1.949062 0.687964 0.987449 0.917117 1.426080 0.299180 -1.821824 -0.446108 -0.540807 0.992469 -3.437085 0.498472 -1.475928 -0.344301 1.883528 -2.925886 0.956567 -0.013717 2.872636
2.110021 -1.481779 1.623766 -1.832834 -0.719165 3.374640 -2.013174 -3.166399 1.331119 2.922167 0.511541 2.174789 1.124956 -1.632640 1.233859 0.770157 -1.644726 2.009783 -1.964602 0.463241 0.327628 0.925002 -1.540124 -0.548334 -0.238298 0.153201 -0.909731 3.078294 -2.542364 2.027334 -1.391303 -3.089613 -1.876078 0.195595 -2.522079 -2.006486 -0.929885 2.402839 -1.314049 3.195646 -0.004065 -1.763604 0.694492 -0.842204 0.809795 -0.124756 -2.869505 -1.708485 1.375910 0.706596 -0.181787 0.252680 -1.848531 0.700856 -1.270714 0.355816 -0.632122 1.804451 1.790402 -0.864554 3.068709 -1.695892 0.750880 2.931995 -2.380088 -0.108848 -0.137341 2.256302 -1.244589 1.050933 0.774799 2.771335 1.046241 -2.593704 2.730000 2.660636 -1.686260 1.611747 4.234894 0.916573 0.096976 -1.040549 -1.495769 1.783639 0.243005 0.874401 -0.482760 3.508348 -0.456374 -1.126404 2.789244 0.611209 -0.422823 1.089493 3.269950 -1.707536 -1.104050 0.269426 -2.569879 -1.418799
1.623022 -1.053758 -0.516618 -0.023366 -0.352995 0.556926 -0.827090 0.248785 -0.321184 0.185425 0.881618 -0.585223 0.895426 -0.215706 -0.200608 -0.153305 0.650301 -1.172472 -0.799664 -0.143249 2.375318 0.292163 -0.001354 -0.227124 -1.199963 0.368111 0.415684 0.213720 -0.071325 1.826780 0.040124 1.610174 2.316376 0.211674 -1.479863 1.115243 0.629866 -0.098515 0.391871 -0.795213 0.767561 0.180032 1.374302 0.184819 -1.071402 1.131773 -0.660585 -0.535972 0.123704 -1.187432 -0.306499 -0.813929 -0.510953 -0.226040 1.015499 -0.016873 -1.113416 -0.649928 0.243113 0.867192 -1.223871 -1.285300 -0.150271 -0.371031 -1.904301 -0.878144 2.030908 0.152781 -0.508416 0.426887 -0.070275 -0.057067 0.145796 -0.324614 -0.301597 1.041360 0.205137 -0.760709 -0.990366 0.381098 -2.921739 -0.683447 -1.038293 0.102390 -0.373352 -0.248588 -0.168161 -1.728781 1.691646 -0.197563 1.257863 1.089868 0.119920 0.881508 -0.178501 -0.080296 0.913051 -0.000111 0.809098 -0.809232
-4.099901 0.558767 -4.191771 -2.897918 -0.757429 -0.740897 2.205831 4.820997 -2.872657 1.476736 -3.985820 2.946238 -2.517870 -2.117730 -1.250715 -2.765835 0.810290 1.757165 -3.326846 0.713855 2.031308 -0.344864 6.794722 -1.906508 -3.245935 1.066883 -0.794257 4.216540 2.594835 -1.021980 -3.544616 -2.396742 -1.022832 -2.201713 -2.891636 2.641948 1.066536 0.425951 -1.209502 2.335643 0.543008 -0.978344 -1.315118 -0.310023 0.294655 -0.770519 -1.212490 -0.328852 0.911695 3.178610 0.899083 -2.056258 -2.573718 -0.495878 -1.054064 -2.789925 4.100780 -2.412319 0.739951 1.640744 -1.653603 -3.603159 -1.572207 -2.876529 -4.261950 -0.359031 3.908183 2.662973 1.808931 -3.650670 -0.081149 4.179051 -0.123076 3.223055 -5.673162 -1.278196 2.252009 2.333439 -0.020098 0.299174 -4.919828 3.033045 0.424727 3.264548 -0.590632 -3.989263 -0.296114 0.246662 1.567383 5.049849 2.095648 2.437357 5.603777 -3.129298 0.799682 -1.617596 -1.437861 1.896533 1.056933 2.515575
1.747889 -0.881827 -1.792582 -0.372837 -2.895762 -0.729743 -1.777466 -1.528889 -0.720650 -0.672925 1.979369 -0.407390 -0.151189 -2.356490 1.273982 -1.056801 0.345635 -0.331593 -0.284800 0.507825 -1.851045 1.712480 -0.157504 -0.865262 1.801915 -0.149482 0.340085 -0.647517 0.669742 1.374793 -1.345362 0.322515 -0.409942 1.569647 -1.218760 1.053773 -1.106645 1.174625 -0.317897 -1.856570 -0.499322 1.367900 -0.161470 1.127663 2.629835 1.154219 -0.699077 0.566509 -1.407427 0.598499 0.716631 -0.707443 -0.398767 0.430931 1.249532 2.228543 -1.433988 -0.611529 -0.620268 0.187933 0.923193 -1.103330 0.043360 -0.207300 -0.313081 0.310616 1.786829 -0.772815 0.508068 0.058574 -0.540281 -0.896951 -1.372703 1.516802 -0.893118 1.383303 0.638477 -1.131640 -0.741424 1.465413 0.017560 0.523382 -1.691396 0.534162 -0.033511 -0.038731 -0.271539 1.863967 -0.283230 0.409733 0.580951 -0.320641 -0.191708 -1.016579 -0.101769 -0.332355 -1.390245 2.311658 0.101181 -0.202605
2.723067 -2.759056 2.171415 3.537492 -0.436714 -1.415182 -3.301851 -3.738509 -2.283328 2.111687 1.961839 1.536053 -2.923203 -1.764715 0.407091 2.738533 5.605854 -3.167043 3.698574 0.202777 1.594361 -3.409032 -1.913415 2.182820 3.313143 -2.940782 2.569784 -2.542710 2.113286 -0.781855 0.564122 5.669339 -2.106795 0.514460 -0.997739 -2.000190 1.658098 -4.712786 1.948628 -4.622254 -2.500320 -0.838415 -3.507067 -1.094080 2.330885 0.514666 1.809028 0.017335 2.028892 1.562767 -1.194126 -1.768104 2.846523 0.354883 1.407355 -2.894241 -2.353495 -2.464491 -0.789436 -2.152591 4.059534 6.843515 -2.621742 -0.994156 1.310997 0.169750 2.683945 0.441678 -0.490444 3.004422 -0.875557 -1.364698 3.851082 -3.056736 2.492042 -1.740027 2.564156 -0.120629 0.934876 -3.758754 2.556334 -0.076535 -2.279726 -1.135587 0.864172 1.826045 1.128319 -2.139885 -4.532809 0.591155 -3.209967 0.945954 -2.430605 1.986544 5.509864 -0.399880 -1.900149 0.527364 0.842588 2.164563
-0.303285 0.886144 1.344761 0.768887 0.451490 -0.266037 -0.518403 2.014307 0.521523 0.574441 -1.230057 -0.182895 -0.158514 -0.212573 -0.150711 0.627013 -1.650466 -0.254314 -0.989583 -0.375634 -1.155194 0.278269 0.284381 0.075510 -0.647855 -0.624928 0.579854 -0.712115 -1.040157 -0.555003 -0.396187 -1.337594 -1.014912 1.307237 1.907993 1.189739 0.078659 -0.425414 0.673660 1.291081 0.937749 -0.612539 -1.053072 -0.116088 -0.129003 -1.544511 2.626132 0.617816 0.104685 0.743038 0.308545 0.302815 1.195903 0.339385 -0.426584 0.173938 2.232972 0.537913 -0.510617 0.223932 0.945432 0.803127 0.598262 -1.030331 -0.443070 -0.245172 -1.823896 0.596882 0.238299 0.374315 0.763978 -0.389314 -1.553277 -1.553786 -0.733275 -0.636316 -0.499340 0.373621 0.922888 -1.045406 1.907508 -0.844154 -0.690570 0.246892 0.442606 0.849829 0.585224 -1.000684 0.641267 -0.105058 0.625480 0.035258 -1.290721 -0.269847 -0.553328 -0.330865 -0.621300 0.135180 -0.394833 1.522226
-3.147738 -3.155936 0.659462 -2.226836 3.955906 3.121719 2.866360 1.557033 0.519435 2.015918 2.526024 -4.283024 1.275350 4.076242 -1.116708 -0.181548 -3.020123 2.466446 2.137283 -0.503657 -4.679589 0.314122 -0.348038 -0.776515 -2.972634 2.417081 3.654689 -3.119128 0.941236 3.500437 1.852636 1.331944 4.043869 -0.057571 1.939017 2.849012 -3.122943 -4.046064 -1.216072 -3.106854 -0.005261 -0.845244 3.946921 0.047610 2.196927 -4.280760 2.981134 4.666071 -2.686448 1.778231 0.197081 3.936709 1.122410 0.393564 -1.783937 -2.941279 3.396065 -3.319886 -0.200716 -0.063182 -1.538783 -1.744082 -4.008980 -0.758707 -2.527531 0.191276 -4.070049 2.904503 0.192166 -4.078443 -2.467399 -0.017373 0.491206 -1.203672 0.762310 -0.507414 2.441773 -0.061723 0.778637 -3.440371 2.338282 -3.144685 3.423681 -3.690734 -1.941264 -2.252472 -0.291412 -1.220028 -3.627258 -2.896209 -3.168064 2.620664 -0.759397 2.617064 -0.518966 2.906313 3.566029 -4.957893 1.718441 1.570671
-2.141732 -0.399765 -1.997352 1.932641 -0.982394 -1.901629 0.163686 -0.595970 1.854245 -0.725928 0.738762 -1.694102 -0.509660 -1.859879 2.197853 -1.255497 3.981961 -2.219027 -0.125555 -0.521194 1.640852 -2.767864 -1.886738 -0.738325 2.161734 0.389352 0.389896 -1.812097 -0.519856 0.326273 0.055578 0.069728 0.711867 1.475217 0.641689 -1.741097 -1.012337 -1.001290 1.091511 0.968243 -2.057817 -1.725517 -2.905167 -0.029878 0.600136 1.082083 -0.889578 -1.958179 -1.617414 0.292857 1.071640 0.393447 -1.510065 -0.379714 -1.186045 -1.145012 -3.387598 0.369709 -2.004464 1.787260 -1.361948 0.778593 -0.767260 -1.256514 1.282332 0.475517 -1.136159 0.451498 -0.114303 0.645413 0.015161 -2.125669 0.320091 -3.042197 -1.307029 -1.864730 -1.696888 0.706196 -1.539087 -2.148089 0.148912 2.005124 1.096114 -2.793019 -0.640034 2.008378 -0.338543 0.016654 -0.332714 1.032584 1.565029 -0.394035 1.324437 -0.143163 -0.484340 -0.603679 1.909039 1.248595 -1.060471 -1.941423
-0.159004 -0.375881 -1.601373 -0.326936 0.415983 -0.556353 0.946550 -1.445007 -0.335327 -0.239913 0.281242 -0.800865 -0.609265 1.383305 0.337369 0.291700 -0.386408 1.526297 1.012217 -0.132712 -0.808418 0.584353 -0.047019 -0.351180 0.396604 0.218747 -0.740518 -1.099809 -1.357895 0.232342 -1.003652 2.513359 -0.858389 1.165296 -2.207939 2.662127 0.198991 0.429490 0.328007 0.548434 1.440488 0.971401 1.012835 0.875837 -0.283367 1.807691 0.631397 0.954445 0.013684 -0.539788 -0.148961 0.410001 -0.262093 0.415591 0.283686 -0.207475 0.401558 0.986076 0.863335 0.027707 1.972971 0.431170 1.225758 1.080405 0.837868 0.317519 1.306170 -1.245974 -0.662504 0.872219 0.403543 -0.138763 -2.037904 -0.895237 1.242057 0.079256 0.037954 -1.991807 2.331840 0.010967 1.450506 0.893695 0.361120 1.113767 -0.953822 2.137918 -0.386069 0.888267 -0.117388 -1.083958 -0.208567 1.027416 1.768662 -1.209841 -0.053485 -0.824732 0.470889 -1.621482 2.630942 0.870141
1.219810 1.129148 -0.496560 -0.598645 0.961406 0.614504 0.857033 1.065393 -0.068865 -0.587238 -0.597798 0.267837 0.208017 0.435358 0.160458 -0.312922 -0.639130 -0.484954 0.135452 -0.240875 0.107381 0.146362 1.232051 0.459073 -1.081521 0.532446 1.224315 -0.073561 0.801307 -0.101818 1.158221 0.147573 0.482654 -1.567070 1.091416 0.583800 0.663698 0.922554 0.737955 -0.102084 -0.452936 1.154278 1.234498 0.076711 -0.372269 -0.171782 -0.450926 -0.584147 -1.532502 -1.069153 -1.302488 0.560380 0.752480 -0.006111 1.361755 0.772425 0.124476 0.255793 -0.478050 -0.189882 -0.745490 0.400985 -1.013673 0.059877 0.941016 -0.688729 0.181924 -0.085140 -0.456530 -0.981854 -0.101123 -1.327787 0.519374 1.156643 0.588801 -0.456111 -0.009372 -0.046866 -1.885272 0.601988 0.418310 0.453336 -0.058112 0.064969 0.702005 -0.778067 0.326492 -0.804376 -0.150872 -0.187171 0.088609 -2.140103 -0.256374 0.241969 -0.956541 1.071334 -0.447005 0.200572 -0.082692 1.537892
-0.183516 3.871824 3.676685 -1.043566 -4.571369 0.506881 -2.070201 1.923745 -2.293947 -2.219529 -1.425409 -2.271475 4.502634 5.068392 -4.406859 2.696919 -0.502039 1.791930 3.465946 1.195573 3.020746 0.308181 -1.491637 3.137661 -0.605164 -1.398423 -3.180561 0.656321 1.318638 1.474490 3.605730 0.604727 -0.672391 0.207603 2.444756 -3.241994 4.196366 1.717976 -2.704841 0.765975 -0.212102 2.905689 -0.501692 -2.915216 -2.308135 0.426670 1.795237 1.734983 4.072002 1.710832 5.026522 -2.850202 -1.458267 -0.996124 1.841406 2.528603 2.758505 0.759358 1.009561 2.181506 -1.096254 0.762908 3.755628 -3.339979 1.810361 1.016286 -0.092880 -1.443718 0.921929 1.535956 0.066508 -1.490491 2.631250 1.670846 -3.650593 4.302503 -1.081035 2.098492 -2.244307 2.286660 -1.410972 -3.624300 -2.451138 0.736378 1.239424 -0.462980 0.311110 0.928393 2.242932 -3.276919 -4.768123 1.838016 -3.250214 0.331951 -1.728115 2.222442 -2.696503 -1.800502 0.532185 -1.296726
0.046706 1.222591 -0.077797 -0.028902 0.819220 1.077774 -0.231467 1.079834 -0.200406 -0.041667 -1.024522 -0.255360 0.153557 -0.506112 -0.989260 -0.467780 -1.315987 -0.420314 0.522144 -0.243989 -0.757854 0.244121 0.524436 -0.291166 -0.767813 0.855550 0.769655 -0.649627 0.232490 -0.291470 0.545173 0.630621 0.269011 -0.610291 0.243959 -0.117166 0.177540 0.276902 0.482661 -0.066478 -0.129482 0.638934 0.675331 0.080603 -0.849109 0.031234 -0.212528 0.012398 -0.877083 -0.466311 -0.672994 0.340205 0.682820 0.177073 0.094266 0.206786 0.341909 0.044868 -0.444826 -0.616932 0.251333 -0.412922 -0.601098 0.115997 0.203937 0.081957 0.099226 -0.198162 0.102548 -0.743800 0.476884 -0.973713 -0.602442 0.734506 -0.042836 -0.886725 -0.064433 0.193341 -0.974502 0.250416 0.452528 -0.826505 -0.322474 -0.043907 -0.181780 -0.843519 -0.228194 -0.151731 -0.302336 -0.013650 -0.317667 -1.532395 -1.118094 0.004384 -0.937250 0.319073 -0.614256 -1.069942 -0.428889 1.265116
-1.262708 -0.858410 -0.972968 1.048940 1.290891 -0.767651 0.950589 0.417870 0.463219 0.696871 -0.521987 -0.070219 -0.578642 -1.240256 -0.433154 -0.117891 0.189759 -1.472271 -1.066728 0.179301 -1.133746 0.102794 -0.498558 -1.341389 -0.147705 -0.783007 0.653064 -0.376813 -0.472528 -0.165468 -1.887960 -0.196752 -0.573441 0.451291 -1.539255 1.344824 -0.703496 -1.432713 -0.057196 -0.844834 0.538655 -1.707446 -0.573804 0.383569 -0.602647 -2.606057 1.885815 -1.116411 -0.630451 0.158152 -0.424916 -0.212189 -0.412713 0.177748 -1.244418 -0.366562 0.033188 -2.265569 -0.948490 -0.694411 -0.695231 -1.369171 -1.440509 0.258364 -1.882480 0.260308 -0.029912 0.149070 -0.403855 -1.163136 -0.158290 0.644837 0.085763 -1.039076 0.051159 -2.030992 1.163196 -1.150918 0.318679 -0.802663 -1.896920 0.349564 -0.071405 -0.794310 -0.717626 -2.528958 -0.891542 -0.276220 -0.933458 0.756163 -1.008492 0.457554 -1.248860 0.549908 -0.857981 -0.220826 0.396755 -0.043108 -0.233669 -0.685936
0.165799 -0.201363 0.018334 1.200743 -2.973333 -0.478424 -1.073191 -0.442930 0.297594 -1.721116 0.518140 1.769789 1.392439 2.294004 -1.043498 -0.136838 -0.846278 0.479645 0.334893 0.279762 -0.522869 -0.315431 1.106471 -0.396132 1.514850 0.224913 -1.645583 1.814931 1.140532 -2.133308 0.571800 -0.135995 1.822320 -0.727191 1.868815 -2.009085 -0.437318 -0.688432 0.161481 -0.703859 1.025534 1.294190 0.789971 0.578979 1.520778 0.182926 1.075564 1.821557 1.614119 0.094170 -0.567746 -1.067148 1.160958 -0.527105 0.015612 -0.527417 -0.099175 1.146758 1.152979 -0.463782 0.302056 -0.658332 1.088144 -0.416576 -1.056885 0.550552 -0.311093 -1.549175 -0.291288 0.251521 0.611845 0.818929 -1.264319 -0.052897 -0.584960 0.635467 -0.498568 -0.365010 0.669754 0.317830 0.374695 1.047015 -0.817611 0.671922 0.025892 -1.726915 0.102889 -0.600689 1.914098 -0.022799 -1.153255 -1.758977 -0.277420 1.928261 -0.734232 1.082342 0.832917 1.201220 -0.157981 -1.609806
2.603686 -0.514844 1.271276 2.390005 -2.783909 0.524283 -2.887626 -4.656887 0.203889 -0.033874 1.394667 3.882332 -2.674415 -3.926057 3.941238 -0.128569 -1.616854 0.857691 -1.973751 -0.188275 1.621548 0.340580 -2.455435 0.453347 1.514083 -2.558605 -3.853612 3.742339 -2.481159 -1.395553 -2.152531 -2.732176 -3.853922 1.768339 -3.155848 -1.542707 -0.406479 3.926865 3.244617 1.955984 1.215420 -1.115206 -3.259271 -0.799750 0.508480 2.022992 -5.107822 -2.254538 3.803862 -2.449413 1.114363 0.617015 0.301818 0.855771 -2.118516 3.248546 -1.675020 2.356027 0.846181 -2.710858 1.515664 0.281349 2.463832 3.826036 2.607085 0.142908 1.439601 -0.532221 -3.240694 2.578673 -0.891353 2.174910 -4.094441 2.110112 0.522277 3.654794 -3.587950 -1.518833 1.043255 3.666109 -0.574036 2.524913 -3.563046 3.424250 0.533397 3.403522 -0.060001 4.179073 1.148229 -0.538115 2.991688 -2.107568 -0.505673 -2.871839 1.204249 -3.540776 -2.318004 2.283392 -2.411123 -2.980434
-2.123443 0.870709 1.729262 -0.145856 2.046244 0.120481 1.316385 2.839711 0.757369 0.497742 -2.677772 -0.579245 0.181466 1.809546 -1.995934 0.848433 0.214709 -0.136140 0.777341 -0.501630 1.222614 -0.083475 0.170802 0.742355 -1.357442 -0.345975 -0.257495 -0.541532 -0.381347 -1.373534 1.194771 0.270498 0.775243 -0.659384 1.062823 1.001742 1.251018 -1.791676 -0.108685 1.127605 0.534520 -1.620748 0.645088 -0.495008 -2.196444 -0.781296 2.614992 -0.263419 1.912758 -0.408022 -0.763132 0.790845 1.300252 0.346915 -1.040760 -2.232245 2.259701 -0.302491 -0.141093 -0.714687 0.066689 -0.231252 0.205459 -0.563069 0.261778 -0.017213 -1.077887 0.022475 -0.649329 -0.021641 0.189041 1.547228 -0.389156 -2.230728 1.349154 -2.173243 1.576479 0.051132 0.170521 -1.754466 -0.646060 -0.745225 1.808522 -0.617552 -0.172544 -0.163746 0.680158 -1.569221 -0.204110 0.791107 -1.270745 0.683411 0.295947 1.376612 -0.283867 -0.695159 1.490827 -1.504654 0.536706 0.912508
0.021627 -1.266773 -0.277738 0.238638 0.586756 0.349394 -0.067005 1.111484 0.225836 -0.037174 -1.569981 -0.250003 0.085705 0.739812 -0.880575 -0.218149 -0.285091 -0.195773 0.360083 -0.520320 -0.190678 0.372594 0.559078 -0.053834 -0.362716 0.374427 0.488063 0.007474 -0.200841 -0.102265 0.208453 0.874135 0.686991 0.643379 -0.285829 0.355108 0.094149 -0.366357 0.441579 0.050357 0.299343 0.247974 0.663530 -0.101401 -0.545542 -0.339935 0.988904 0.003859 -0.136857 -0.699172 -1.195463 0.781904 0.312596 0.090528 0.603247 0.380857 0.514449 -0.390807 -0.673296 -0.513657 -0.039117 -0.251345 -0.763404 -0.687584 0.310600 -0.246252 0.410604 -0.607328 0.793863 -0.765966 0.563629 -0.274311 -0.893549 0.021583 0.143392 -0.593702 0.651678 -0.567545 -1.453891 0.213075 -0.380337 -1.269026 -0.362203 -0.072850 0.104010 -1.420580 -0.146196 0.014737 -0.127703 0.030207 -0.323939 -1.276956 -0.757903 -0.070435 -0.757994 -0.006455 0.200133 -0.907399 -0.742617 0.929647
-1.326400 -0.722802 -1.572284 0.015039 -0.456433 -0.627019 1.736602 -0.826159 -0.243832 -0.314371 0.346350 -0.236370 -0.587218 0.065635 -1.312485 -0.585525 0.805062 0.676831 0.864810 0.543652 -0.585444 -0.550736 0.185908 0.304373 1.897419 -0.559761 -0.897622 -0.598511 0.797896 -1.017506 -0.223065 -0.438150 -0.827483 -0.163312 -0.903674 -2.152357 -0.660272 0.444165 -0.133756 0.489400 -0.626542 0.296135 -0.467822 0.175465 1.142283 0.404265 -0.548558 -1.293202 -1.573589 0.757572 -0.413246 -0.182816 -1.264169 -0.202533 -0.688325 -0.587161 -0.860672 -0.408387 0.413075 -1.362753 -0.367997 0.941335 0.357476 0.396657 1.251063 0.177856 0.094963 -0.531098 0.590339 -1.911154 -0.200545 0.054853 0.931301 2.047655 1.945683 -1.276073 1.128656 0.235882 -0.335660 -0.433232 0.748918 -0.353321 1.220043 -0.088101 0.185787 -1.289407 -0.952692 2.780518 -0.879460 0.191369 -1.653480 -0.683873 0.399052 -0.791052 0.767013 0.106263 -1.154354 0.140966 -0.906060 0.306530
-0.059206 1.829506 -1.303611 -0.557354 1.739910 -1.789596 0.760343 0.057433 3.863055 -3.303197 1.277820 -2.693955 4.195871 0.923820 0.617878 -0.380222 1.478829 -4.352624 -1.239475 0.218929 -0.855580 1.080584 -1.069866 -2.331446 2.538812 0.511794 -0.805038 0.150077 -4.348564 -1.622749 -1.946893 -2.596964 3.576541 1.637218 2.647416 -2.435043 -2.108259 1.305394 -1.762460 -0.294591 0.859650 -0.218930 2.939557 2.414964 -2.711389 0.007078 -1.510183 -2.660743 -2.958075 -3.838122 -1.666045 0.592285 -0.862686 -1.539963 0.633537 2.104338 -4.054487 2.685343 -2.014726 4.395562 -4.595837 -0.682390 1.531010 1.773422 1.174983 -0.182113 -5.470956 -1.864566 4.349652 3.490282 1.852509 -1.053791 -2.421037 -2.585113 0.245622 -1.979742 -2.139928 -2.268172 -0.727933 0.088583 1.762291 -0.312269 4.713727 -4.037130 2.648484 1.387768 -0.618109 -0.672853 2.358716 0.968190 4.486478 -0.147337 -0.979305 -0.397332 -1.724894 0.286572 4.839219 1.559382 -3.211733 -3.149654
hidden_context -> hidden
1.155529 -0.472108 -0.893621 -0.342099 -0.252379 0.814673 -0.384447 0.085259 0.241974 -0.099190 0.233267 -0.499504 0.526377 -0.818090 0.589326 -0.248940 -0.966805 0.406166 -0.265597 -0.254598 -0.606471 0.277244 0.449976 0.033648 0.345892 0.108782 0.482433 0.270701 0.042743 0.272145 0.964923 0.328273 0.344200 -0.285747 -0.431629 0.684724 1.009328 0.296411 -0.153512 -0.090241 -0.797617 0.663480 0.335284 -0.461190 0.280426 0.533556 -1.257653 0.325467 -0.545572 0.213327 -0.053358 -0.398009 0.042968 0.007807 0.518908 0.503230 -0.112590 0.394113 0.621151 -0.787995 -0.271438 0.180559 -0.599662 0.034818 -0.541461 -0.046977 0.058449 0.038215 -0.716582 0.284723 -0.111549 0.016573 -0.016039 -0.464479 -0.127398 -0.314337 0.158667 0.440191 -1.096342 -0.075667 0.996426 0.513907 -1.164962 0.391560 -0.676279 0.726723 0.110083 0.013584 0.855373 -0.133037 0.115139 -0.390456 -1.234513 0.738301 -0.841136 -1.153187 0.157006 0.689033 0.221007 -0.466490
-0.422007 2.198584 0.245943 1.090046 1.491141 -0.116557 0.286335 0.078365 -0.346952 -0.414182 0.403039 -0.277315 0.477527 -0.934121 -0.230659 -0.392803 -0.599640 1.016397 -0.212701 0.665582 -0.481646 0.124228 -0.056601 -0.434197 0.044739 0.121019 0.350110 -1.074628 0.043018 0.369967 -0.098373 0.348328 -0.182702 0.981631 0.469310 1.252915 -1.069396 0.071775 0.145817 -0.128422 0.157682 0.607865 -0.156324 -0.288826 -0.285987 0.534680 -0.641115 1.143219 -0.591633 0.231949 -0.401760 -0.466490 0.978267 -0.066260 -0.469058 -0.246215 -0.089735 0.311641 0.285704 0.685542 0.230387 1.183157 1.042117 0.761157 0.805569 0.147810 -0.132972 0.509455 0.478952 0.548113 -0.064648 0.033645 -0.384550 1.027609 0.254065 0.733388 -1.336704 0.682663 -0.465041 -1.109564 1.402224 0.390141 0.574511 0.281300 -0.632309 0.782028 0.227929 -0.375113 -0.176173 -0.150876 1.061414 -0.265097 -0.261263 -0.806336 0.437875 0.799386 -0.050096 -1.775907 0.580806 -0.122196
0.082134 0.618642 1.766031 0.908914 0.518036 -0.136556 -0.033077 0.480581 0.353625 0.011971 -0.489409 0.698206 0.982728 -1.121923 -1.133986 -0.320803 0.531433 0.392346 -0.998612 0.348530 0.309883 -0.125784 -0.617152 -0.547614 -0.311591 -0.731156 -0.088292 -0.812207 -1.360369 1.034009 -0.168962 -1.011626 -0.078204 -0.748577 0.603161 -0.526339 0.516434 0.809737 -1.155223 1.309423 -0.681763 0.136479 -0.175308 -0.338696 0.354313 0.263752 0.306846 -0.475935 0.941272 0.863511 -0.420842 -0.181741 0.205654 -0.395393 -0.043113 -0.729851 1.132958 0.675755 0.715522 -0.317656 0.177993 -0.235033 -0.269799 0.441019 0.770068 0.344681 -0.644065 0.571235 -0.276871 0.659600 -0.069604 0.075597 -0.787854 -0.449255 0.126754 0.025758 -0.784634 0.737516 0.241845 0.034748 0.618118 -0.064754 -0.939094 -0.016710 -0.463069 -0.032465 0.127812 -0.163149 0.965804 -1.046598 1.158740 0.426294 0.111077 -0.961389 -0.481511 0.373065 0.295975 0.005114 -0.841521 0.869573
-0.543699 0.731644 0.920396 1.518383 -0.260545 -0.829108 -0.419079 0.108113 -0.481784 0.304505 0.185003 -0.388663 -0.039733 -0.991580 -0.159935 -0.620746 0.067632 -0.358147 -0.366983 0.276743 0.293116 -0.133929 -0.334868 -0.380787 -0.572669 -0.596569 -1.159618 0.416161 0.377462 -0.525552 -0.737857 1.268147 0.553009 0.494947 0.869464 -0.227096 -0.804992 0.695836 0.984907 -0.197757 1.484115 0.132646 0.310166 -0.642272 -0.010964 -0.276632 1.285293 0.515320 -0.003629 0.041408 0.193223 0.701698 -0.152713 -0.107237 -0.804900 -0.909423 1.875501 -1.341117 -0.214491 0.120566 -0.682321 0.194536 -0.219767 -0.597402 0.698241 0.507527 -0.467072 -0.429483 0.805018 0.551265 0.392324 -0.291792 -0.766172 -0.404681 -1.385345 -0.051324 -1.214408 -0.602821 0.740116 -0.071544 -0.571512 0.368157 -0.683803 -0.444993 0.060431 -0.723363 -0.049072 0.169434 -0.454351 -0.351706 0.253263 -1.078070 -0.014242 -0.796829 -0.687556 -0.150005 -0.396551 0.660961 -0.916192 0.881500
-0.345029 0.634043 -0.942316 -0.215390 3.842862 -0.130392 -0.419655 0.195436 0.452867 0.113691 -1.714208 0.452498 0.397434 -0.618029 -0.242367 0.207432 -1.267051 -2.143940 -0.266135 -0.470921 1.376686 -0.430572 -0.038636 0.523096 -0.433436 1.003471 -0.991561 -1.032614 -0.482593 -1.101488 -0.269702 -0.609812 -0.734484 -0.899670 0.853233 1.813040 -0.651411 -0.236071 -0.669423 -1.174464 -0.148918 -0.151561 0.068914 -1.132895 -1.575794 0.148312 -0.446663 -0.064296 0.110057 -0.061426 0.377350 -0.358064 1.027376 -0.196297 -0.632025 -1.479099 -1.439456 -0.785217 -1.723319 0.061235 -0.123319 1.008482 -1.333383 -0.133496 1.777782 0.146135 -1.101630 0.222062 -0.386529 0.795621 0.333419 -0.266517 0.933099 0.115493 -0.544952 -0.699795 -0.413389 0.125650 -0.133774 0.228225 -0.399014 -1.553570 0.158482 0.818404 0.542502 1.520519 0.290776 -0.744576 0.092782 0.751316 0.103643 0.397433 -0.229957 -0.271377 0.198966 0.219541 -0.382027 -0.658847 -0.318651 0.438078
0.947011 -1.331459 0.395968 -0.405482 0.928045 1.460093 -0.099193 -0.078975 -0.053306 0.285587 -0.143943 -0.411077 -0.216272 -0.228481 0.150465 0.368848 0.143691 -1.052995 -0.543957 0.102716 0.063798 0.401638 0.757262 0.387837 -0.780091 0.183430 1.138690 0.390369 -0.720602 -0.245703 0.831556 -0.475735 -0.695633 -0.194526 -1.403230 -0.030075 0.305082 -0.090443 -0.654543 0.138989 -0.182949 -1.004108 0.409998 0.040568 -1.297530 -1.176497 -0.503293 0.152487 -0.686496 0.675298 -0.317827 -0.208971 -0.545561 0.023962 0.324413 0.418774 -0.386391 0.441535 -0.857304 -0.615877 -0.193723 -0.205878 -1.218953 0.175466 -0.167842 0.200100 0.985736 0.531751 -0.064335 -0.620762 0.622915 0.542125 1.755038 0.149777 0.703975 0.159616 0.141364 0.816473 0.361166 -0.493738 0.080328 -1.274010 -0.865622 0.036251 -0.635135 -0.091971 -0.515237 0.068210 0.668591 -0.113013 0.588690 0.013101 -0.480117 -0.024005 -0.722100 -0.877289 1.456948 0.517543 -0.224415 -0.301957
-0.153080 0.519461 -0.271522 0.008860 -0.629211 -1.197444 1.958557 0.111568 -1.020068 -0.599051 -0.812911 -0.538188 -1.067738 1.192892 -0.089712 0.463339 0.162567 0.413296 0.927391 -0.048697 0.054969 -0.733880 0.109494 0.668057 0.768081 0.281086 -1.294100 0.335120 0.685645 -0.152487 0.091165 0.886824 0.570999 -0.303095 0.322905 0.934938 -0.232397 0.639108 0.135799 0.577701 -0.294540 0.355082 -0.192414 -0.221303 0.117380 -0.581614 -0.556727 -0.655874 0.129708 -0.656856 -0.707440 0.754664 -0.757478 0.030521 0.367861 0.084251 -0.118955 0.505194 -0.414485 -0.689477 -0.357863 -0.099669 0.039347 1.225723 0.313427 -0.032871 -0.485108 -0.612912 -0.763987 -0.209189 -0.126726 -0.515111 -0.450235 -0.419488 0.501097 -1.426788 -0.314973 -0.618189 -0.974062 -0.742502 0.049834 -0.072040 0.813271 -0.051042 -0.416320 0.641937 -0.031241 0.907144 -0.471896 0.072641 -0.805590 0.128453 0.613377 -0.552681 1.389418 -0.339721 -0.048853 -1.158335 0.753738 1.032907
0.672966 0.224489 1.161382 0.729502 0.757494 0.221148 0.589778 1.756836 -0.582601 -0.404997 -0.408187 -0.021895 0.308603 -1.530911 -0.247700 0.109318 -1.344933 -0.730564 -0.878082 0.146172 -1.270719 -0.019633 -0.988038 -0.560048 -0.489775 -0.551151 0.106966 -0.049519 -0.691878 -0.572502 0.051054 -0.556199 0.352310 0.348962 1.334439 0.411329 -0.193776 -0.952934 0.677355 1.010591 0.498020 0.074607 -0.506880 -0.479282 -1.601358 -0.262000 0.816940 -1.055238 0.414272 -0.547580 -1.305280 0.391175 -0.083380 -0.289829 -0.716979 0.105442 -0.104274 -0.330078 -0.160349 -0.649578 -0.295896 1.019826 -0.755523 -0.674715 0.255069 -0.403826 -0.851357 0.383676 0.077509 0.325416 -0.486170 -0.330886 -1.002876 0.704405 0.061519 -1.104834 -0.232649 -0.114683 -1.258808 0.098699 0.163151 -0.629193 -0.836730 0.957852 0.062415 -0.410949 0.061523 -0.613102 0.324734 0.584159 -0.336447 -0.944772 -1.631816 -0.678796 -0.904198 0.167997 0.305787 -0.098572 -1.319024 0.420913
-1.560265 -0.333483 0.729130 -0.530401 0.330295 -1.134294 -1.038694 1.092225 0.354627 0.026193 -0.536461 0.058285 -0.627287 -0.445545 0.149496 0.245039 0.610256 -1.475650 -0.592617 -0.254143 0.739613 -0.561029 -0.288608 0.341320 0.239684 -0.660073 0.209544 -0.240810 0.045636 -0.177274 0.160759 0.524345 -0.016379 0.002839 0.047842 0.215479 0.108600 -0.091711 0.152235 -0.335728 0.582197 -0.139166 0.156598 -0.219268 0.123540 -0.039026 0.016993 -0.037447 -0.010110 -0.112675 0.421243 -0.875183 -0.676931 0.287385 -0.113244 -0.416943 -0.082380 -0.818607 0.797091 -1.076791 -0.622447 0.285206 -0.034748 -0.711052 -0.456251 0.145550 -0.587165 0.022922 -0.480768 0.137873 -0.352005 -0.732599 -0.274538 -1.089026 -0.959479 0.891016 0.084878 0.193138 0.009141 1.307152 -1.678823 0.135309 0.876799 0.185332 0.425313 -1.080378 0.060340 -0.096933 0.031661 -0.368936 0.926621 0.056698 0.056229 0.200539 -0.364931 -0.521183 -0.026841 0.187940 -0.352927 -0.113092
-0.668580 0.486267 0.054056 -0.197594 0.569410 0.134331 -0.120910 -0.878667 0.007446 1.090356 -0.517916 0.569580 0.065961 -1.308824 0.536723 0.411940 -0.501365 -1.436627 0.117186 -0.336163 -0.597124 -0.065230 0.832963 -0.099108 0.689236 -1.021805 -0.617250 0.041018 -0.644996 -0.163544 -0.480161 -1.075491 0.035319 0.947242 -1.076129 0.606573 -0.728030 -0.838977 0.174379 0.560337 0.821768 -0.690766 0.648694 -0.164629 -0.238188 -1.066117 -0.220056 -0.470916 -0.354468 0.110510 -0.502387 -0.154568 -0.301137 -0.047232 0.217719 -0.405323 0.294967 -0.978024 -0.611289 -0.125608 -0.180664 -0.845106 0.390510 -0.326990 0.297872 0.227165 -0.776769 -0.497613 0.140709 0.276536 0.081593 0.095978 0.128161 -0.103474 -0.264276 0.330223 -0.558665 -0.421213 0.903964 0.507191 -0.610256 -0.854086 -0.172708 0.393667 0.775611 0.100868 0.017964 -0.066724 0.020694 0.057750 1.037209 -1.050491 -0.479220 -0.141043 0.172722 0.033329 -0.172821 -0.079819 -0.109860 0.010974
0.134629 1.304203 -0.930519 -0.124117 -1.402149 -0.431349 -1.405957 -0.768389 0.426469 0.041007 2.993551 0.030867 0.168977 -0.232820 0.991887 -0.800439 0.670960 1.228270 -0.165924 0.223367 -0.056769 0.182712 0.795587 -0.628337 -0.742710 0.193315 0.757483 0.789676 1.359829 0.758599 0.646061 -0.024350 -0.135941 0.506817 -0.840477 -0.090604 -0.083220 1.878235 0.103049 -0.977927 -0.123841 1.006180 -0.324441 0.468324 0.587575 0.828158 0.143356 0.654276 -0.951277 -0.853303 0.603205 -0.106142 -0.467065 -0.316955 0.067031 0.691503 -0.698469 0.296706 1.180510 -0.203324 -0.078326 1.201271 -0.641116 0.697391 0.273386 0.035436 0.501118 0.488896 -0.368729 0.611154 -0.881731 -0.278217 0.335621 -0.172536 -1.837085 1.180780 -0.499569 0.365055 -0.718448 1.335171 -0.234039 1.328487 -0.151628 0.249364 0.190523 -0.565712 0.050968 -0.353956 0.510769 -0.134652 0.749778 0.525155 0.960388 0.660436 0.080607 -0.446560 -0.898174 -0.003916 0.522367 0.082144
-0.641107 0.035996 1.248572 -0.200119 0.905597 0.925023 -1.339384 0.268796 -0.779220 0.985607 -0.872306 1.495078 0.381946 -0.055242 -1.038169 0.364873 0.129296 -0.442180 0.376057 0.558190 0.148257 0.069247 0.288638 -0.194786 0.046407 -1.167660 -0.270663 -0.049858 -0.587239 0.277826 -0.299111 -0.899518 0.106419 -1.033726 0.295893 -0.617405 -0.273468 -0.560121 -0.930785 -0.441224 0.504201 -0.717796 0.452284 -0.222584 -0.203366 -1.042055 -0.391726 -0.765429 0.570044 0.324895 -0.631444 -0.189517 -0.163427 -0.115665 0.260379 0.335166 0.302128 -0.058968 0.614628 -0.213159 0.156220 -1.037453 0.051852 -0.391311 -0.180193 -0.081901 0.161650 0.507255 0.981676 -0.347509 -0.004541 0.329195 1.079990 0.813843 0.520522 1.303752 -0.678197 -0.435793 0.301174 0.155927 0.079563 -1.118339 0.139073 -0.083910 0.821858 -1.350304 -0.245257 0.180618 -0.319181 -0.411051 0.551850 -0.292830 -0.948580 -0.763478 0.273958 0.853995 0.762938 -0.146140 -1.810878 -0.557691
-0.630774 -0.044686 0.129409 0.171050 0.507732 0.543539 -0.430394 -0.027619 0.035406 -0.364616 -0.396079 0.556691 0.339035 0.068370 -0.683557 -0.269661 -0.283590 0.037604 -0.298775 0.107157 -0.266688 0.222035 -0.517051 -0.112288 0.238411 0.008459 0.306058 -0.182334 -0.518148 0.022866 -0.104229 0.248944 -0.398204 -0.394516 0.586662 0.622705 -0.401595 -0.500050 -0.192078 0.325056 0.237890 -0.441926 -0.162850 -0.186735 0.184405 0.245946 0.123405 -0.251841 -0.175526 0.597674 -0.477491 -0.728199 0.416144 0.120000 -0.401482 -0.395101 -0.886271 0.612736 0.291294 0.187890 -0.054947 -0.087289 0.003697 0.026213 -0.199563 0.335782 0.118704 -0.281186 0.053781 0.208805 0.312199 0.072295 0.188183 1.173462 0.278073 0.013110 -0.874073 0.884559 -0.062219 0.046671 0.063819 0.069733 -0.727436 0.252472 0.576989 0.618375 -0.536492 -0.457200 0.226777 -0.315354 -0.018341 0.413142 -1.060012 0.049598 -0.575422 0.279660 -0.090952 -0.151825 0.181173 -0.242651
-0.862555 -0.614386 0.424120 -0.390466 -0.402310 -0.231565 0.667171 -2.048358 -0.573646 -0.960663 -1.300587 -0.036916 -0.622713 4.110556 -1.295645 0.659626 0.162876 0.513576 1.055731 0.218852 1.593774 -0.682549 0.199768 0.723306 0.505355 0.855257 -0.328748 0.080623 0.250033 -1.048059 -0.279811 0.227457 -0.134827 -0.642298 1.334779 0.012479 0.853131 0.240649 0.475666 -0.919103 -0.392837 -1.423505 -0.088349 0.569273 0.139453 -0.022539 1.664160 1.205450 -0.018506 -0.740280 0.106542 -0.660748 1.035699 0.232120 0.133598 -1.281591 -1.944981 0.604357 0.813848 0.190026 0.076100 -1.118804 1.139544 0.495941 -0.291151 -0.120904 0.106826 0.169002 -0.454653 0.484604 -0.528524 0.617404 0.380686 0.528046 -0.054736 0.109771 -0.384770 0.787860 -0.162670 -0.636319 -0.749436 -0.815349 1.099284 0.463474 -0.417297 -0.566458 -0.511752 0.266007 0.312612 -0.269029 -0.486086 0.330470 0.137592 0.764379 1.012551 -0.208237 1.204261 -1.001404 0.513661 0.421202
0.343219 0.593378 -0.337127 -0.015543 0.374523 0.258976 0.203230 0.504000 0.210098 0.623360 0.591364 -0.801004 0.926235 -1.833867 1.812956 -1.394578 -0.151394 -0.216885 0.113005 -0.313906 0.178021 0.200276 -0.259196 -0.722166 -0.656969 0.267742 0.213503 0.098690 0.796240 0.777581 0.136925 0.118323 0.860857 0.717374 -0.960800 1.601374 -0.463336 -1.154768 -0.196351 0.699471 -1.503578 -0.624716 -0.349318 -0.283975 -0.819086 0.947470 -0.675879 0.321388 0.731212 0.311878 -0.276501 0.732591 -0.895042 -0.267095 0.206438 0.532162 0.582076 -0.355796 -0.177210 -0.191094 1.033406 0.132780 -0.671843 -0.614565 0.801123 0.386091 0.692471 -0.431706 -0.229675 0.148842 -0.062657 0.208568 0.736969 -0.972317 -0.037828 -0.186115 -0.129801 0.917587 0.343316 0.133952 -0.164228 0.925172 -0.006126 0.136439 0.480907 1.849028 -0.175118 -0.872656 0.214954 -0.187114 0.105555 0.098574 -0.208904 -0.040376 0.189439 -0.548469 0.031915 0.684732 0.311566 0.188783
0.299619 -0.387744 0.448494 0.067469 -0.158963 0.110217 1.014783 -0.351463 0.081614 0.084558 -1.353983 -0.435278 -0.138346 0.381214 -0.723833 0.516493 0.047092 0.890812 0.175068 0.207573 0.600092 -0.101624 0.669314 0.282949 -0.236456 0.213421 -0.599487 -0.241588 -0.150284 -0.223577 0.259108 0.275302 0.221851 -0.956139 0.628294 -0.145517 -0.430412 0.323254 -0.476881 0.117737 0.758439 -0.579232 1.210859 0.209005 -0.281244 0.014244 -0.303619 -0.006840 -0.219253 -0.293728 -0.246709 -0.196988 0.131520 -0.417260 0.431987 -0.777006 0.237111 -0.683083 0.968141 -0.077081 -0.894694 -0.577362 0.297907 0.199041 -0.152104 -0.627727 -0.040504 0.294469 -0.851015 0.234762 0.139859 -0.095453 0.764455 -0.166013 0.359049 -0.587181 -0.524134 -0.882678 1.453914 -0.062510 -0.078031 -0.061289 -0.062643 -0.280350 -0.492412 -0.133168 -0.326192 0.946381 -0.615304 -0.104085 -0.230806 -0.286345 0.300734 -0.624300 0.787783 -0.397157 0.127976 0.702769 0.466482 0.469213
-0.882385 -0.061059 1.026993 1.310124 -0.307180 -0.733084 -1.087066 0.286088 -0.117568 -0.558465 0.457985 -0.922936 0.031044 -0.504340 0.358798 -0.499666 4.163821 -1.526567 0.073290 -0.382315 1.339099 -1.026322 -1.036987 0.078208 -0.530146 0.402479 0.097461 -0.186678 0.640101 -0.046427 0.475163 0.527894 -0.629509 -1.007249 -0.617158 -1.024374 -1.038342 1.311505 0.386349 -1.567105 -0.183348 -0.637824 1.300681 -0.377534 0.100853 0.800050 -0.204728 -0.594703 0.409706 -0.251477 -0.135739 0.113958 -1.581036 -0.443177 -1.338172 -0.908168 0.475504 -0.539449 -0.986547 -1.185037 -1.612103 -1.346154 -0.163582 -0.895158 0.521336 0.274184 0.632867 -0.160882 -1.101044 -0.152829 -0.552192 -1.299340 -0.432206 0.414908 -1.340755 0.056748 -0.251574 -1.445591 -0.320733 1.246941 -2.196208 0.625247 0.062680 -2.458550 -0.160957 -0.922970 -0.328600 0.513959 -0.670657 0.098681 0.923489 -0.348119 0.408561 0.026717 -0.836578 -0.357305 -0.703811 1.053827 -0.193319 0.859575
0.614571 0.480978 1.254273 -0.113727 -0.546871 -0.014477 0.583852 0.161157 -0.311248 0.629538 0.964598 0.144072 -0.311193 0.390372 -0.618464 1.283293 -0.764880 1.727765 0.894773 -0.184764 -0.839609 0.676808 -0.022305 0.441358 0.580733 -0.547066 -0.580112 0.512798 -0.494367 -0.968226 -0.965982 -0.080527 -0.649805 -0.230290 0.556358 -0.461026 0.144308 0.959946 -0.018638 0.077484 0.337082 1.069281 0.815842 -0.467726 0.420278 0.385178 0.029324 -0.333880 0.034156 1.312868 -0.768092 -0.177713 1.079556 0.118874 0.077113 0.321863 0.803042 1.841101 1.097174 0.188926 0.840262 -0.325304 1.316623 1.538428 0.868613 0.088783 -0.281888 -1.035294 -0.726157 -0.480116 0.041815 -0.095339 -0.369860 1.016314 0.908266 0.094775 0.563114 -0.239590 1.073706 -0.097803 1.711107 -0.047283 0.089231 0.559484 -0.059962 0.863762 -0.243050 0.454632 -0.185914 -0.113076 -1.367932 -0.091890 -0.516494 -0.969585 0.539417 0.696002 -0.743278 -0.683521 0.364614 0.671382
-1.090967 -0.725063 0.230875 -0.289541 -1.154376 -0.596722 -0.285818 -0.215613 -1.186335 0.470894 -0.333481 -0.270094 -0.778360 1.000142 0.327183 0.361887 0.301177 0.864548 1.050047 0.254380 -0.501588 -0.419000 0.895569 0.374475 0.066718 -0.184709 -1.270943 -0.339926 1.717308 -0.620168 -0.687890 0.525568 -0.377879 -0.748830 -0.056604 -0.049927 0.379541 -0.509265 0.359690 0.089391 -0.115223 -0.292509 0.374642 0.612821 0.214066 -0.137936 -0.912106 -0.551046 0.162243 0.978050 0.235391 -0.416811 0.590340 0.361292 1.212568 0.301864 0.174695 1.536013 -0.494917 -0.732377 -0.468060 -0.967863 0.463208 0.589680 0.624421 -0.443454 1.135288 -1.602569 -0.703021 -0.456610 -0.102840 -0.520597 0.791766 1.111723 0.814718 0.227065 0.244312 -0.942807 -0.771941 0.119259 0.105221 0.096646 1.199945 0.037722 0.069292 -0.195311 0.061338 0.347294 0.158272 0.694906 -1.023470 -0.098834 0.200054 -0.295162 -0.503941 -0.033668 -0.242449 0.154203 -0.244624 -0.732029
-0.052018 0.271036 -0.673450 0.155766 -1.108060 0.474742 -0.220016 0.248191 0.235238 -0.775370 -0.334543 0.551212 0.322464 -0.490130 -0.761660 0.401231 -0.530933 -0.225441 -0.814060 0.499269 0.092594 0.018575 0.152563 0.090055 -0.784863 0.188325 -0.008245 -0.251940 0.045943 0.059739 -0.053903 0.292193 -0.783086 0.083162 -0.263702 -1.125365 -1.184640 -0.138426 -0.131387 0.266987 0.047085 0.178519 -0.465348 0.120134 -0.188499 0.040883 0.000767 0.169837 -0.685259 -0.000193 0.222130 -0.024683 0.000141 0.266246 0.243518 -0.183285 0.067542 -0.038020 0.364518 -0.643405 -0.195916 -0.122133 0.675398 0.222197 -0.521831 0.354392 0.241932 0.475422 0.417294 -0.804154 -0.382159 -0.534994 0.329240 0.498786 0.118301 0.265225 0.242731 0.928700 -0.070744 -0.061908 0.060178 0.095911 -0.006142 -0.316678 -0.703318 -0.519831 0.153322 -0.545126 -0.221029 -0.318892 -0.352721 -0.186291 -0.461126 0.570608 0.184927 -0.694983 -0.294117 -0.736873 0.426628 -0.140855
-0.520960 0.274531 -0.857522 -1.202754 0.702523 1.035604 -1.137464 -0.586380 1.056253 -1.183045 0.763742 -0.060226 0.069927 1.425585 1.448338 -0.092928 0.805267 0.189040 -0.390715 -0.377012 1.094517 0.196574 0.345856 0.381287 -1.537441 0.377823 1.161847 -0.218282 0.272072 0.665629 0.617286 1.227823 0.725878 -0.910432 -0.638983 0.483165 -0.003386 -0.119231 -0.380212 -1.259503 -1.141650 -0.779469 0.796473 0.907134 -1.339829 0.953581 -0.459716 0.485319 0.414675 -1.134063 -0.109896 -1.105029 -0.504838 0.489960 -0.123257 0.204287 -1.315151 -0.002598 0.562214 -1.476560 -0.959187 -0.031344 -0.367789 -0.615310 -0.289702 -0.097387 0.156230 0.272578 -0.730959 0.382593 -0.249259 -0.790112 1.266790 -1.171469 -0.276871 1.481911 -0.015019 1.078064 0.582913 1.756250 -1.246731 0.209101 0.714546 -0.019819 0.437380 -0.153037 -0.121355 -0.911568 0.984211 -1.372826 0.989267 1.062134 0.223666 1.116658 0.167069 -0.190309 0.806451 -0.175272 -0.050425 -0.779417
1.008530 -0.346560 -0.514208 0.117801 -0.338672 0.494054 -0.394177 -0.457162 -0.092181 0.265897 1.024172 -0.430404 0.495602 -0.502231 -0.091807 -0.550690 -0.558437 -0.660587 0.145279 -0.052736 -0.220324 1.302239 0.217818 0.200362 -0.510728 -0.349505 0.142965 -0.334495 -0.152273 -0.213883 -0.016068 0.062922 -0.485023 -0.027459 -1.516964 -0.301696 0.209406 0.843859 -0.042613 -0.598268 0.484231 0.359345 0.239434 -1.074885 -0.343452 -0.398304 0.847254 0.459627 -0.493356 -0.376301 -0.390654 -0.132095 0.596028 -0.109886 -0.535145 -0.328068 -0.447710 -0.875582 -0.848780 0.493804 0.261052 0.086088 -0.653303 0.438617 -0.665302 -0.303206 0.087403 -0.207145 -0.857249 -0.374656 0.432845 0.951631 -0.445066 0.116409 -1.046843 0.047477 0.940460 -0.684118 -0.045361 -0.381533 -0.056145 -0.413541 -1.381190 0.396916 0.415086 0.276659 -0.369697 -0.036031 -0.354467 -0.366652 -0.485946 -0.602431 -0.694459 -0.194833 -0.569743 0.213120 -0.605175 0.478930 0.818747 -0.276748
0.559703 0.130543 0.015181 0.566134 -0.872669 0.577795 0.167791 0.501876 -0.904056 0.243245 -0.549728 -0.121403 -0.255460 1.044317 -0.741839 0.120853 -0.109731 -0.456878 1.173957 -0.698294 0.081766 0.687426 0.560922 0.004198 -0.165984 -0.047087 -0.125707 0.348146 1.484599 -0.623997 0.188398 -0.272076 -0.160474 0.337071 0.061290 -0.078315 0.538718 -0.271668 -0.560399 -0.682148 -0.225202 0.250524 0.343123 -0.392928 -1.279046 -1.188070 -0.253986 -0.122409 -0.372345 -0.488933 -0.370119 0.120878 0.920058 0.313086 1.189756 0.445861 0.943301 -0.117729 -0.472082 -0.371024 -1.033181 -0.194422 -1.291957 -0.247503 0.732527 0.151649 0.669259 -1.324467 -0.066845 -1.180490 0.571179 -0.227406 0.829118 1.152710 -0.266497 -0.461691 0.917057 -1.245482 -1.284726 -0.489091 1.257823 -1.234640 0.050880 -0.122609 -0.474866 -0.934654 -0.224414 -0.031722 -0.060545 -0.012058 -0.845984 -1.765046 -2.170240 -0.832682 -0.465084 0.550253 0.450902 -0.247017 -0.007022 0.466053
0.074587 0.180011 -0.192119 0.290541 -0.692248 0.105532 -0.133264 -0.748957 0.238874 -0.578820 -0.889688 0.054661 -0.010557 0.705703 -0.734487 -0.085945 0.085732 -0.112304 -0.624807 -0.543500 0.363077 -0.193392 0.488358 0.186970 -0.157462 0.341299 0.075231 -0.043470 0.087066 -0.536935 -0.565027 -0.336054 -0.416169 -0.339234 0.300114 0.252854 0.058336 -0.125288 0.624788 -0.555002 -0.504721 -0.403429 -0.020389 -0.145886 -0.268129 -0.357064 -0.584237 -0.106390 -0.115164 0.486681 0.304759 -0.576615 0.105877 -0.237575 -0.269480 -0.895366 0.197968 -0.261944 0.068107 0.229211 -0.387900 -0.059357 -0.209969 -0.584673 -0.094326 -0.426499 -0.298132 0.021140 0.170524 0.833172 -0.227739 0.344183 0.024663 -0.319422 0.159778 0.158511 -0.275280 0.055720 0.177615 -0.061878 -0.153282 0.111936 -0.372173 0.493683 -0.547306 -0.221407 -0.262491 0.526779 -0.179423 0.498313 -0.285263 0.317400 -0.141562 0.479415 -0.104368 0.366827 -0.676695 -0.334515 0.617725 -0.018045
-0.565455 -0.852004 -1.688245 -0.911518 -1.159104 -1.072016 0.259952 -0.369320 -0.667710 -0.247383 -1.326388 0.569081 -0.639262 -0.306267 -0.319979 -0.032522 -0.280765 0.553323 0.528578 -0.382288 -0.484410 -0.719706 -0.087490 0.146109 1.254734 -0.378449 -0.587899 -0.358005 1.015934 -0.324150 -0.177530 -0.728625 0.109004 -0.069430 0.714365 -1.071609 -0.196599 -0.359005 0.574944 -0.077467 0.632951 -0.038989 -0.210308 -0.326999 2.223150 -0.213396 -1.041678 0.084330 -0.858262 0.543534 1.370334 -1.022981 0.038837 -0.280770 0.192695 0.481537 -0.289163 0.864218 -0.211860 0.555487 0.549075 -0.980649 0.926716 -0.502888 0.095462 -0.232677 -0.389407 -0.271776 -0.189342 -0.457791 0.047585 -0.858575 0.601002 0.597819 -0.084665 0.004396 -1.221084 -1.135961 -0.666560 -0.800916 -0.521225 0.493415 -0.006120 -0.389110 0.605359 -0.570191 -0.848002 1.478273 -0.593364 0.679723 -0.194101 -1.407789 0.164194 -0.496321 -0.310071 -0.042473 -0.760215 0.533802 -0.300379 -0.381016
0.273830 0.331095 -0.663501 -0.340658 0.398178 -0.006702 0.395464 -1.267183 0.099540 -0.074111 -1.063250 0.424543 -0.629880 0.080543 0.670343 -0.486707 0.134860 0.094380 0.037030 -0.198696 0.842673 0.196640 0.025826 0.233136 0.448060 1.183042 -0.275623 -0.263154 0.490255 -0.134059 -0.193479 -0.187629 -0.383808 -0.215754 -0.135916 1.242659 -0.653692 -0.727238 0.470337 -0.000286 -1.596242 0.056963 -0.509373 0.151357 -0.327365 -0.591776 -0.907723 -0.464569 0.102133 -0.259531 -0.042936 -1.142653 0.036980 0.076308 0.263883 -0.594819 -0.587781 -0.151767 -0.158870 -0.621822 0.264356 -0.473097 -0.405568 -0.047096 -0.422128 0.122133 -0.187830 -0.407547 -0.290820 0.052849 0.222063 0.147147 1.042518 -0.478078 0.029269 0.371989 -0.478598 0.915777 0.324153 -0.299651 -0.091266 0.351395 0.458966 0.057719 -0.070916 0.423825 0.012854 0.210516 0.077704 0.156057 -0.136449 0.107424 0.556317 0.511277 1.018929 0.234160 -1.185689 0.095486 -0.497071 -0.217735
-0.334452 -0.206848 0.920837 0.747410 0.572694 -0.027614 -1.015519 1.250322 -0.198659 0.126934 0.238090 -0.278269 -0.817755 -0.755772 -1.073100 0.009577 0.335396 -0.898388 0.180242 -0.101897 0.280129 -0.097596 0.105152 0.256767 -0.290224 -0.106961 0.723893 -0.778757 -0.295201 -0.639465 -0.113908 0.749959 -0.404730 -0.164142 -0.179152 -0.507455 -0.699733 -0.921979 -0.422371 -0.378162 0.641532 0.311846 -0.094886 -0.275331 -0.460908 -0.409128 -0.888052 0.949634 -0.254763 0.571125 -0.427850 -0.651968 0.897942 -0.436617 0.477255 -0.136815 0.379608 -1.027271 -0.742720 0.000695 -0.824746 0.751734 -1.822588 -0.143201 0.766027 -0.000518 -0.006655 0.240352 0.983672 -0.123562 -0.223186 -0.674642 -0.650379 1.149695 -0.848127 0.416824 0.187026 -0.576976 -1.145113 -0.101391 0.748390 -1.072845 -0.023760 0.131968 -0.480625 -0.704173 -0.016621 -0.422679 0.255909 -0.541972 1.363131 -0.410004 -0.122130 -1.020387 -0.990211 -0.664724 1.156394 0.955765 0.739187 0.128453
0.477145 -1.291104 -0.466849 -0.414991 -0.983539 0.072723 0.142029 0.532245 0.762384 -1.117921 -0.145769 -0.123436 0.104544 0.700743 0.706908 0.040156 -0.925561 0.597022 -0.436446 0.133127 0.459618 0.444414 0.455120 0.142145 0.877532 0.381474 -0.403115 2.743691 0.589234 -1.065346 0.162978 0.519816 0.435821 -0.228096 0.093727 -0.415122 0.352023 0.031937 -0.079772 -0.023073 1.480777 -0.149310 0.705662 -0.410753 0.285136 0.768487 0.191881 0.544004 0.416334 -0.595577 0.240679 -0.327499 -0.954078 0.229389 -0.199352 0.205766 -0.211839 0.289781 0.358153 -0.497486 -0.166669 0.468802 0.945341 -0.054651 -1.705475 -0.167635 -1.208131 0.157934 -0.050474 0.194524 -0.129693 -0.122829 1.212443 -0.544563 0.929656 0.437094 0.076998 0.090298 1.217507 0.689753 -0.549876 -0.870163 -0.859158 0.269597 1.025581 -1.044171 -0.510835 0.158193 0.040160 0.187651 -1.372241 -1.223244 -1.626818 0.970556 0.652942 -1.045020 1.150531 0.821497 -1.269670 -0.208974
0.312502 1.312451 -1.406443 0.395080 -1.630189 -0.072327 0.354411 -0.723791 -0.408631 -0.019784 0.013309 -0.028592 0.156953 0.701231 0.540893 0.120714 -0.180757 0.258891 1.148908 0.456765 0.335344 -0.089336 0.472033 0.169609 1.195469 0.367306 0.145244 0.512051 1.647687 0.290098 0.079260 0.478447 0.340895 -0.768628 0.039898 -0.094576 0.462089 0.456760 -0.096956 0.387464 -0.118487 0.146913 0.070712 -0.459940 0.376085 0.455553 -0.712990 0.366281 0.349578 -0.679048 -0.254319 -0.692207 0.844490 0.636355 1.119417 1.179735 -0.611752 1.220042 0.150973 -0.690185 -0.693424 -0.204870 0.222474 -0.147153 1.092819 -0.377251 0.313118 -1.287386 -0.101901 0.075457 -0.057083 -1.054325 0.359675 0.089965 -0.164551 1.052839 -0.420024 -0.187611 -0.337395 1.300605 -0.787597 0.774628 0.415212 0.165682 -0.604681 -0.526955 -0.871434 -0.031702 -0.214168 0.128477 -0.094705 -1.292345 -0.920926 -0.347005 0.334959 0.692547 -0.385772 0.118153 -0.429801 -1.043829
1.243626 -1.160501 -0.217218 0.485427 -0.275205 0.703347 -0.133251 -0.365684 0.317900 -0.709090 0.302710 -0.543168 0.470542 -1.414074 0.793105 -0.402761 0.260341 -0.650047 -0.748280 -0.658053 0.327408 0.981462 -0.358655 0.121521 0.485625 -0.530396 0.726016 0.803655 -0.910907 0.861344 -0.241925 -0.053365 -0.472237 -0.972105 -0.779105 0.606129 0.918417 0.243079 -0.420727 0.215428 -0.967435 0.245014 1.432899 0.437831 -0.116750 0.665717 -1.244595 0.510374 -0.033479 -1.360771 0.096214 -0.259244 -1.101227 -0.548554 0.998547 1.045718 -0.173833 -0.430507 0.469548 -0.427820 -0.286905 0.153497 -1.348995 -0.562297 -0.443419 -0.035683 0.629591 0.233014 0.194619 0.077141 0.436908 -0.003969 -0.141368 -0.518902 -0.278237 0.645331 0.720917 0.097273 -0.705200 0.759858 0.242898 -0.562765 -1.951348 0.081381 -0.014732 0.526804 0.211432 1.256864 1.266767 0.063424 1.078607 0.348084 0.524514 -0.325421 -0.371439 -0.449918 0.962693 0.671285 0.523773 -1.019778
-0.534023 0.591446 0.072174 -0.791020 0.334355 1.132169 -0.315539 0.435482 -0.284494 0.015519 0.247154 0.235501 -0.396775 1.105090 -0.187846 0.040302 -0.295850 -0.431843 -0.223417 0.404719 0.257365 -0.298886 1.091074 -0.255672 -0.890239 0.310174 0.887930 -0.242831 0.024539 -0.591196 0.397838 0.176895 -0.614892 0.378123 -0.801383 -0.383643 0.227626 0.693218 -0.544095 -0.592568 0.264572 0.623985 0.093016 -0.131617 -0.947882 -0.576021 -0.237847 -0.127376 -1.172806 -0.327347 -0.183625 0.291877 0.282774 0.432716 0.525216 0.363594 -0.149846 0.358780 0.533016 -1.015437 -0.364558 0.455072 -0.794317 0.507044 0.620890 0.183676 0.806761 0.099101 -0.816402 -0.511980 0.270051 -0.735789 0.744385 0.625504 0.652129 -0.827709 -0.743533 0.648970 -0.192147 0.180330 0.293823 -0.241907 -0.271221 -0.072404 0.600510 -0.299732 -0.094698 -0.498289 0.158578 0.315761 0.235228 -0.841980 -0.363952 0.226302 -0.962550 -0.203445 0.601772 0.479900 0.107393 -0.228441
0.787554 -0.989506 -2.241235 0.026936 -1.709020 0.158071 -0.512384 -0.677921 0.431631 -1.567245 0.128474 -1.308549 -0.995197 1.126321 1.429863 -1.142038 0.985075 -0.431926 -0.035390 -0.142666 0.273222 -0.328372 -0.098469 -0.377391 0.203501 1.037908 0.352802 0.868553 0.956314 0.005010 0.266327 1.243732 -0.304159 0.517231 -1.548880 -0.042990 -0.417022 -0.660726 0.171124 -0.384219 -0.146515 -0.913585 0.048127 0.165305 -0.504284 1.091560 -0.653016 0.789016 0.057003 -0.199596 -0.165813 -1.008111 -0.713474 -0.121456 0.143719 0.529607 -0.682809 -0.763823 -0.885699 -0.670605 -0.463168 -0.642568 -0.488019 0.268867 -1.082303 -0.125094 0.774678 -0.726293 0.220686 0.081389 0.478995 -0.632391 -0.474067 -0.000876 0.050685 0.182412 1.091428 -0.274521 -0.735937 0.380443 -1.649720 0.202832 -0.072387 0.092952 -1.336720 -0.891755 0.245047 0.716253 0.136821 0.018880 0.505493 0.446016 0.827790 0.370945 -0.287007 -1.251992 2.184651 0.599086 1.372373 -1.699089
0.731797 0.123551 -0.637929 -0.283899 -1.202884 -0.562705 -0.012598 0.093976 0.348536 -1.120243 0.012332 -0.038145 0.320048 1.255214 1.277242 -0.130261 0.319059 0.704925 0.617517 0.101469 0.912979 -0.742910 1.047146 -0.549245 0.211087 -0.511875 -0.283677 0.399247 0.732952 0.047042 0.961486 0.593481 1.361919 0.275641 0.039790 0.705417 1.232534 0.095324 -0.442151 0.242213 -0.287660 -0.526646 -0.008274 -0.177481 0.429482 1.047814 -0.400013 0.455710 0.827390 -0.020162 -0.157695 -0.218826 0.229459 0.332195 -0.048485 0.169041 -0.464276 0.504264 1.600114 -0.986308 0.045104 0.584825 0.130599 -0.315003 0.215227 -0.315479 -0.285533 -0.727536 -0.206451 0.562739 0.168675 -0.200827 0.123762 0.006228 0.722203 0.286236 -0.335068 0.260518 -0.368558 0.480149 -1.620065 0.332645 -0.278151 0.321352 -0.006927 0.083810 0.298828 -1.269451 0.259589 -0.212180 0.034912 -0.131890 0.338823 0.264887 -0.275763 -0.255710 1.158559 0.313572 0.382652 -0.002184
-0.827684 -0.165442 -0.441594 1.270534 -0.915291 -0.602681 -0.365990 -0.179222 -0.299222 0.171534 0.327959 -0.316222 -0.317250 -1.076346 0.957290 -0.827013 -0.287762 -1.204618 -0.466210 0.989568 -1.091666 0.758327 -0.843187 -0.483068 -0.087273 0.079961 -0.520744 -0.695071 -0.571466 -0.631840 -0.457671 0.218298 -0.575591 2.877399 -1.680593 0.018821 -1.336607 -0.673620 0.743367 1.045948 -0.042284 0.070997 -1.106116 0.346530 0.192323 0.191766 0.983122 -0.041265 -0.598417 1.225355 0.309686 -0.175581 -0.619646 0.364928 0.057964 0.789630 0.373742 0.083977 -0.855590 0.065611 0.339071 0.011603 0.759084 -0.236988 0.180642 0.264114 1.367826 -0.440098 1.089481 -0.341325 -0.502607 0.764245 -0.419514 -0.238548 -0.343503 -0.155232 0.741941 0.522912 0.235685 0.240500 -1.068676 -0.034984 -0.203593 0.787295 0.759069 0.554077 0.156340 0.277412 0.183300 0.136967 0.129493 0.161066 -0.654677 -0.036177 0.389239 -0.311417 -1.355260 -0.844572 0.698905 -0.780387
0.488622 -0.162058 1.515920 0.358474 0.130083 -1.403537 0.499850 1.688597 -0.085006 -1.215480 -0.334688 0.743715 0.143281 0.340283 0.540309 -0.421907 -0.537744 0.547898 -0.802161 -0.351208 -0.213237 -0.649880 0.160650 0.267227 -0.711197 0.482345 -1.376473 -0.350947 -0.533862 0.624298 -0.346913 -0.917284 0.964437 -1.821448 3.651172 0.276524 1.137296 0.245785 0.935192 0.546593 -0.608399 0.958861 -0.541472 0.001842 0.006507 0.356103 0.331733 0.283035 0.813953 -0.394492 0.247233 -0.763255 1.291872 0.116978 -0.729268 -1.227333 0.209262 0.614463 0.812602 0.225068 1.356001 0.236310 -0.675305 -0.312955 0.157218 -0.475385 -0.903491 -0.359757 -0.367448 0.405299 -0.470409 0.149849 -0.962844 -0.156474 -0.670029 -1.148933 -1.497085 0.410534 -0.345571 -0.353994 1.184154 1.091498 0.098528 1.649700 -0.852593 0.813683 0.375815 -1.016783 0.460593 0.205972 -0.999594 0.521032 0.072289 -0.921062 -0.039567 0.722298 -0.757032 -0.883128 -2.098328 0.393137
1.184016 0.858774 -1.648015 -0.111565 1.960305 -0.698301 0.511235 0.700538 0.984645 -1.414874 -0.379538 -1.516298 1.153049 -1.170859 -0.015328 -0.815597 -1.312619 -1.176652 -1.180045 -0.075475 0.105017 0.628226 -0.940072 -0.486640 0.092346 -0.665782 0.616608 -1.073977 -0.529185 0.364625 0.401358 0.905194 1.160550 0.203848 -0.621719 3.924354 0.212951 -0.276536 -0.133003 0.052773 -1.285471 0.469023 0.734328 -1.070171 0.183375 -0.113568 0.607314 0.578435 0.983398 -2.309312 -0.400075 -0.257998 1.031559 0.432001 0.345440 -0.211496 0.205197 -0.638486 0.627417 -0.827502 0.044375 -0.207618 -0.784108 -1.235411 -0.348751 -0.222345 -0.372885 0.427042 -0.702151 0.782649 -0.075553 0.309257 -1.199821 -0.323112 -0.369582 -0.132059 -0.208283 1.330821 -1.057788 1.287704 -0.150191 -0.281831 -0.802981 1.000721 -0.292895 1.446398 -0.463409 -0.926070 1.476356 -0.921903 1.426412 0.604765 -1.037616 0.517147 0.075893 -0.144763 -0.008344 0.316992 1.430418 -0.167726
-0.084229 -1.122642 0.368283 0.537248 -0.160386 -0.300800 -0.266607 0.912472 0.171163 -0.136714 -0.475009 0.071329 -0.071530 0.649304 -0.161227 -0.021230 -0.067778 1.018990 0.449911 -0.854203 0.338563 0.442080 -0.156691 -0.220584 -0.440097 -0.319531 0.219811 -0.704779 -0.324449 0.290624 0.611253 -0.420978 0.695253 -1.634486 0.637349 -0.199514 1.091528 -0.529763 -0.661924 -0.382539 -0.431270 -0.237610 0.780502 0.113338 -0.335444 -0.407724 0.430457 0.408958 1.228176 -0.640665 0.113420 0.217507 1.035641 -0.205428 -0.325892 -0.814869 0.487627 -0.818824 0.625545 -0.449869 0.784966 -0.036131 -0.496772 -0.917697 -0.065762 -0.635000 -0.632323 -0.253878 0.155644 0.754370 0.813453 0.575477 -0.332354 -0.631553 0.156277 -0.289898 0.315771 -0.408911 0.035855 1.047796 -0.010528 0.415472 -0.451444 -0.282163 0.328037 -0.258491 0.473884 -0.468935 -0.215681 0.240783 -0.400482 -0.072229 0.029573 0.047813 -0.980907 -0.647347 0.925954 0.525686 -0.453511 0.247407
0.151867 0.789283 0.151706 0.209505 -0.298209 0.653903 -0.455791 -1.597674 -0.685712 -0.678375 2.122199 0.045838 -0.583498 0.888251 0.312082 -0.834002 0.653268 1.335438 0.178330 -0.313565 0.313830 0.709323 0.043303 0.369304 -0.668556 0.074609 0.093051 0.441089 0.552840 -0.480452 -0.235802 -0.290635 -0.100456 -1.019688 -0.708412 -0.077193 -0.333701 2.417544 -0.879431 -0.527538 -0.057275 0.842561 0.473185 0.282264 0.921525 0.570861 0.694875 -0.261345 -0.535920 0.200136 0.065257 0.360825 0.046723 -0.532761 -0.138683 -0.282830 -1.084774 1.101173 0.150771 -0.596498 0.244703 -0.526833 0.256926 1.488783 0.749772 -0.466493 0.321351 0.910089 -0.935624 -0.220573 0.304566 -0.243018 0.865780 0.564289 0.308135 0.949743 0.566221 0.316866 0.102456 0.142345 0.048405 0.509665 -0.145794 -0.415898 -0.529254 -0.736648 -0.119187 1.025834 -1.581895 -0.289270 -0.360911 0.439128 1.299533 0.368136 0.720180 -0.814047 -0.691451 0.367890 0.720796 0.422578
-0.704429 -0.904307 -0.528816 0.495344 -0.545231 0.131858 -0.040970 -0.507036 -0.369086 -0.126220 -0.462961 -0.641878 -0.206500 -0.198973 -0.034768 0.018316 0.412639 -0.412122 -0.075073 -0.556356 0.305824 0.074020 0.207024 0.341325 -0.085455 0.307253 -0.407896 0.018412 0.799915 0.137210 -0.276551 -0.244967 -0.297488 0.339624 -0.027063 0.802453 -0.176500 -0.336234 0.675208 -0.582336 -0.480382 -0.623921 -0.215362 -0.241178 0.462951 -0.188823 -0.599911 0.239735 -0.245152 -0.096569 0.143668 0.672462 -0.459273 0.101128 0.119886 0.126036 -0.130347 -0.391001 0.080018 -0.369125 -0.459670 0.432532 0.045147 -0.518212 -0.011013 -0.563720 -0.138955 -0.220540 0.285145 -0.000200 -0.484497 0.062594 -0.177820 -0.085018 -0.315676 -0.640434 0.061400 0.101413 0.000753 0.059473 0.084482 0.459070 -0.035744 -0.026245 -0.603107 -0.033043 0.347141 0.119885 -0.699416 0.112683 -0.020732 0.438082 0.058948 0.126116 -0.556061 0.521543 -0.295461 -1.055603 -0.553580 -0.152312
-0.482639 0.053998 1.245074 0.761436 -0.397737 0.431895 0.745292 0.325724 -1.065805 1.304614 -0.318425 -0.148298 -0.255145 -1.697287 0.545741 0.853984 -1.007689 0.099125 -0.411357 0.349891 -0.705443 -0.041765 -0.235824 -0.259710 -0.768674 -0.983313 -0.273059 -0.530843 -0.254206 0.146926 0.025898 -0.376470 0.216399 0.337506 -0.417907 0.362104 0.451847 -0.374615 -0.076184 1.662436 -0.678244 -0.604247 -0.541730 0.066591 -0.151975 -0.095772 0.431069 -0.073230 0.619899 0.815789 0.930610 1.171110 0.898657 0.142316 -0.578157 0.044132 1.181823 0.442468 -0.227026 0.657278 0.807311 0.607972 0.636791 -0.151644 0.382383 -0.383300 -0.672896 0.449973 0.277790 0.663078 0.192748 0.252571 0.324192 -1.379051 0.797498 0.384549 0.136497 1.017742 1.043231 -0.296138 0.802333 0.119783 0.555661 0.711389 -0.332523 0.413807 -0.379480 -0.493162 -0.624769 0.139571 0.280735 -0.807867 0.297181 -0.219718 0.080778 -0.295676 -0.480611 -0.561156 0.149988 -0.243240
-0.724671 -0.475384 -0.177477 -0.273138 -0.394563 -0.295955 -0.192895 -0.621449 0.115996 -0.369372 0.049196 0.281357 0.161737 0.114146 -0.334724 0.232043 -0.233687 0.292622 -0.199328 0.866465 -0.245161 0.200499 -0.833335 0.046880 0.705786 0.053619 -0.069020 1.155608 -0.210012 -0.481219 -0.615684 0.648090 -0.182816 0.352573 -0.203175 -0.561187 -0.474957 -0.470626 -0.669970 -1.153448 1.443751 0.023698 0.184595 -0.057533 -0.359752 -0.570759 0.633941 0.609679 0.081803 -0.068387 -0.056867 0.676816 0.388722 -0.120212 0.137426 -0.023905 0.666245 -0.394259 0.445615 0.078168 -0.717070 0.273527 0.168352 -0.316056 0.161926 0.101706 -0.401536 0.430156 0.330937 -0.388844 0.773177 0.550609 -0.191658 0.376746 0.258139 -0.726812 -0.872894 -0.941975 0.614461 0.168350 -0.545356 -0.293269 0.081398 0.336878 0.838598 -0.836537 -0.134052 -0.164074 0.096552 0.054631 -1.168320 -0.244481 -0.505282 -0.557070 -0.008437 -0.627649 0.471611 -1.097912 0.830003 0.133038
0.534326 1.759973 -0.663848 0.613727 -0.017237 -0.309747 -0.783728 0.130041 0.013833 -0.458848 1.976233 -0.022129 0.230785 -1.271100 0.070644 -0.905798 -0.876368 1.309789 -0.327143 -0.078132 -1.056973 0.402614 0.508891 -0.276918 0.589297 0.120018 -0.484781 -0.231436 0.048672 0.059826 0.446015 0.066991 -0.056037 0.089529 0.360079 0.480226 -0.510709 1.432975 0.550798 -0.199454 0.706428 2.130903 0.246462 -0.752277 0.705177 1.041640 -0.075413 0.342074 -0.708205 0.205467 -0.834334 0.046857 0.262117 0.532107 0.553942 0.797220 0.209505 0.039593 0.991277 -0.218473 0.118854 0.466883 -0.116805 0.300387 0.974120 -0.631731 -0.253247 -1.007136 0.022690 0.267194 0.169109 -0.912687 -0.469325 0.885091 -0.026116 -0.410407 -0.439651 -0.696533 -0.825754 0.565063 1.002034 0.588633 -1.083878 0.877200 -0.122010 0.609533 -0.001110 0.367663 0.158251 -0.407415 -0.845439 -0.660229 0.559035 0.087519 -0.638878 0.981636 -0.845770 -0.099344 0.539348 0.586138
-0.181627 0.312353 -0.477077 -0.735570 0.223087 -0.005985 -0.605388 -0.157122 0.720293 -1.094127 -0.154909 -0.771260 -0.288224 0.317729 0.019931 0.432801 1.492414 -0.136307 0.064124 -0.067341 0.835362 0.035455 0.121971 -0.122645 -0.054869 -0.160218 0.373370 1.023543 0.336533 0.182071 0.035161 0.723839 0.014556 -1.011047 -0.764000 -0.258743 0.316416 1.421151 -0.800546 -1.196438 0.694550 0.000139 1.212219 0.465204 -0.043990 0.884080 -1.072522 0.069382 0.232486 -1.552104 -0.679832 -0.261217 -0.917004 -0.758109 0.206761 0.483113 -0.587390 0.446027 0.402028 -0.689670 -0.731430 -0.592825 -0.142379 0.244920 -0.006601 -0.130919 0.134716 -0.137533 -1.120763 0.267767 0.807532 -0.542315 0.574780 0.139385 0.792788 0.807390 0.323379 -0.848228 0.265260 0.944778 -0.602900 -0.242397 1.053000 -0.006621 0.370940 -0.515216 -0.499388 0.679365 -0.372940 -0.863783 -0.700662 -0.436369 -0.042603 0.262334 0.206970 0.050770 -0.275845 -0.316378 0.708901 0.480251
0.179461 -0.645405 0.627784 0.368166 -1.058263 -0.256007 -0.513985 -0.406024 -0.330836 -0.569824 0.531871 0.003830 -0.893109 0.068995 -0.801276 -0.584902 0.737239 -0.138263 -0.026337 0.729116 -0.295079 0.485939 -0.681993 -0.192544 0.263543 -0.125901 0.441339 -0.293364 0.049981 0.294324 -0.156539 -0.030095 -0.729104 0.618248 0.289979 -1.264589 0.275589 -0.454036 0.096366 0.062070 0.352562 -0.071498 -0.260631 0.804834 -0.158770 -0.269373 0.334569 -0.189250 -0.563149 -0.361023 -0.203044 0.025965 0.174013 0.057879 0.342264 0.609838 -0.207068 -0.130007 -0.769342 -0.206297 0.214076 0.292230 -0.150126 0.029959 0.197304 -0.346674 1.172671 -0.153316 0.844159 -0.287000 -0.266551 0.396802 -0.642028 0.778387 -0.001424 0.483048 0.638460 -0.482232 -0.554489 0.281626 0.030778 0.277150 0.100357 -0.011726 -0.623967 -0.325673 0.172032 -0.146320 -0.187170 0.331255 0.281810 -0.064594 0.042604 -0.366334 0.358050 -0.326829 -0.775917 -0.483767 0.265349 -0.368290
0.252382 -0.759132 -1.486413 0.012886 -0.122549 -0.716797 -0.198252 -0.992561 -0.562993 0.199580 0.712540 0.187351 -0.052821 -0.994105 -0.097495 -0.225709 0.441436 0.572822 -0.420096 0.230053 -1.322291 0.002646 0.033034 0.327684 0.992927 -0.692718 -0.481998 0.279088 -0.183067 -0.232749 -0.421132 -1.107870 0.194967 -0.558972 -0.330138 -0.273888 -0.158914 0.216147 0.582363 0.050215 0.451917 0.877318 -0.214063 -0.374866 2.552226 0.046039 0.312465 -0.314880 0.285458 0.342438 0.612611 -0.388792 -0.246006 0.354372 -0.157436 -0.547372 -0.588364 1.348767 -0.264230 0.708449 0.439355 -1.305042 0.236112 -0.340808 -0.694894 -0.013011 -0.369288 0.091133 -0.412741 -0.149717 -0.010122 -1.018058 -0.350359 1.012361 0.162653 -0.290242 -1.154774 -0.306883 -0.984720 0.027541 -0.166522 0.638150 -0.493771 -0.946497 0.943122 0.616464 -1.072657 1.002069 -0.093107 0.639301 0.760608 -0.976166 -0.126320 -0.425939 -0.186151 0.532035 -0.868065 0.527243 -0.914257 -0.203586
0.291932 -0.554389 -1.027824 -0.989896 0.021469 -0.463663 -0.238477 0.071639 -0.289250 -0.926933 1.287066 -1.691530 -0.537887 1.986562 0.707085 -0.046201 1.761815 1.294144 0.115119 -0.486789 0.213309 -0.485451 0.325968 0.204694 0.329546 0.196883 0.388510 0.801383 0.437080 0.149171 0.415220 1.577336 -0.022256 -1.390029 0.091532 -0.357218 0.360545 0.748512 -0.552591 -0.500927 -0.664141 -0.294520 0.525533 0.166414 0.985901 2.818145 -1.175625 0.452005 -0.238477 0.368422 1.274084 -1.000053 -0.456444 -0.778817 -0.185307 -0.009843 -1.408836 1.306885 0.450950 -0.434743 -0.605846 -0.128769 0.455967 1.001883 0.282550 -0.795006 0.399171 0.332168 -0.750172 0.172245 -0.594152 -0.525115 0.809261 0.402027 0.604104 1.313851 0.146055 0.164907 -0.188472 -0.400831 -0.117676 0.604188 0.161913 -0.321053 -0.167568 0.318449 -0.357788 -0.124318 -0.065557 -0.473469 -0.627040 0.676830 1.428481 0.368480 0.121086 -0.530186 1.177270 -0.347132 0.041612 -1.186186
-1.523165 -0.088425 1.272885 1.947497 -0.351313 -1.382128 -0.068571 0.013821 -0.463117 -0.249410 -0.355224 0.101851 0.079990 0.837623 -1.600281 -0.047847 -0.196501 -0.870529 0.335647 -0.140203 -1.026532 1.198785 -1.383997 -0.249723 -0.593242 -1.080888 -0.619239 -0.942538 -1.142401 -1.197671 -0.575649 -0.234914 -0.305631 0.574363 1.114853 -0.377354 0.754966 0.467545 -0.280905 -1.703062 1.241077 -0.179089 -0.511375 -0.221877 -0.483678 -0.916218 3.627404 -0.384213 -0.299573 -1.139625 -0.074020 1.049336 1.285647 0.076748 -1.620626 -0.654625 0.820874 -0.534899 -0.456177 -0.172491 -0.172709 0.255056 0.211472 0.162521 0.614053 0.077476 -0.694517 0.715715 0.613305 0.739133 0.060306 0.350034 -2.734506 0.777705 -1.424923 -0.765730 0.881008 0.512406 -0.911428 -0.194909 -1.957166 -1.283506 1.171529 -0.348310 0.157533 -1.360460 0.208278 -1.209382 -0.248967 -0.539055 -0.700055 -0.445587 -1.389926 -0.715548 -0.336871 -1.101636 0.148741 -1.216373 -0.489323 0.790322
0.235809 0.679881 -0.512069 0.898575 -0.036087 -0.765687 -0.582841 -1.229115 -0.128165 -0.423231 -0.345014 0.860951 0.394788 -0.644721 -0.183034 -0.190689 -0.878821 -0.194988 -0.422994 0.444146 -0.697786 -0.154513 -0.943836 -0.606887 0.035491 -0.300016 0.529082 -0.454082 -0.288225 0.523312 -0.482809 0.749819 -0.502703 -0.316471 -0.390100 0.137211 0.256132 0.167780 0.799023 0.407288 -0.055881 0.465246 -0.493441 -0.010355 0.636173 0.842989 -0.220880 0.685472 0.205805 -0.465758 0.548042 -0.650216 0.899854 0.319815 -0.314429 -0.390210 -0.621986 -0.225893 0.840581 -0.383454 0.820660 0.043755 0.562113 0.321938 -0.770442 -0.164899 -0.158309 0.379950 0.674858 0.939080 -0.523976 0.207565 -0.569831 -0.576516 -0.663094 0.984538 0.071761 -0.011606 0.475349 0.645154 -0.349209 0.621288 -0.870299 1.680823 -0.680371 0.288304 -0.639085 -0.263307 -0.294587 -0.409851 0.753534 0.399639 -0.107295 0.284938 0.388912 -0.060109 -0.272729 -0.389344 0.736165 -1.324561
-0.045338 -0.779664 0.689205 0.148248 -0.888387 0.559473 -0.307561 1.211270 0.123226 0.009743 -1.052018 -0.223345 1.063900 0.644888 0.495479 0.064110 -0.336736 1.439375 0.322657 -0.148752 0.023977 0.212237 -0.190325 -0.324099 0.105525 0.593721 -0.136662 1.133742 0.338069 0.099709 0.157935 1.266412 1.411944 -1.039871 0.268274 0.302614 0.435342 -0.940377 -0.630656 -0.116513 -0.442975 -0.193439 0.756599 -0.188574 -1.168104 0.481270 -0.056853 0.839935 1.040826 0.270094 -0.671865 -0.185986 -0.534259 -0.696128 -0.377223 -0.392455 0.422254 0.355230 0.815074 -0.823269 0.463656 -1.100151 0.309517 -0.689271 -0.911528 0.400622 0.128721 -2.019514 0.012455 0.840496 0.463319 0.956758 -0.387118 -0.282414 1.033316 0.714533 0.569222 0.511453 1.210075 -0.405469 -0.375468 -0.180317 0.378976 0.107952 -0.778610 0.839399 -0.143937 -1.253509 0.355100 0.166627 -1.498390 0.739037 -1.563362 0.390392 -0.695026 -0.064826 1.242151 -0.111171 0.182874 -1.050410
-1.159227 0.296988 0.155102 0.086816 -1.022477 -0.354737 -0.390355 0.021562 -0.230309 0.350462 0.223555 0.302205 -0.123036 -0.657662 0.367944 0.860107 -0.357300 0.497569 1.072831 0.695695 -1.271904 0.066307 0.101850 -0.210158 1.035690 0.041347 -0.710866 -0.269866 -0.778579 -0.259424 -0.847820 -0.144655 -0.447143 0.861198 -0.514491 -0.111897 -0.259291 -1.031146 -0.444703 -0.313038 1.148847 0.220762 -0.510528 0.082396 -0.332486 -0.463464 -0.257613 -0.593594 0.274327 0.870122 0.378073 -0.282073 -0.091540 0.049144 0.179736 0.053937 -0.252033 0.012187 0.375812 -0.294164 0.555962 -0.287752 -0.055395 -0.004524 0.364129 0.169394 -0.162986 -0.999460 0.587022 0.454258 0.452829 -0.133923 -0.260388 -0.290450 0.187656 0.705999 0.016380 -1.302481 1.059266 0.312740 -0.008623 0.061370 0.193611 0.832352 0.177280 -0.054471 -0.152684 0.360572 -0.402894 0.599283 -0.373609 0.451346 -0.282000 -0.427460 -0.156217 -0.002478 0.238363 -0.253728 -0.264461 -0.547428
-0.021160 -0.299363 -1.226021 0.015853 -0.267880 -0.358119 -0.422483 -0.969639 0.219967 0.140446 0.652416 0.120297 -0.495553 -0.230246 0.111930 0.258316 -0.205750 0.236238 -0.040620 0.334409 0.250486 0.480362 0.075213 0.542865 1.166212 -0.346826 -0.234155 0.373804 -0.089546 0.812951 -0.233597 0.036903 0.111683 0.087872 -0.324351 -0.656315 0.532374 -0.392055 -0.537236 0.369188 -0.196761 0.084973 -0.563888 -0.164128 1.669254 0.807881 -0.069617 0.234510 0.238068 0.328506 0.816076 -0.633906 0.403764 -0.529249 -0.051349 -0.587868 -0.179153 0.152303 0.703688 0.340130 0.610948 -0.214842 0.420168 -0.136623 0.618692 0.179067 -0.155948 -0.031264 0.210535 1.114329 -0.250158 0.118867 0.290551 -0.408154 -0.618118 -0.270469 -0.526432 -0.193923 0.916910 0.134532 0.642282 0.678341 -0.755821 0.266504 -0.139903 0.627975 -0.187102 0.731902 0.331325 0.375235 0.583075 -0.000105 1.157012 -0.634370 -0.759143 -0.005889 0.108509 0.986572 0.254848 -0.392247
0.659157 -0.065233 0.638417 0.279180 -0.752380 -0.045597 0.967656 1.355245 0.119794 0.174554 0.259830 -0.084582 -0.376186 0.097090 -0.063568 0.309375 0.062676 -0.112481 -0.233940 0.290313 -0.025292 0.365234 -0.397624 -0.209848 -0.050491 -0.657903 -0.066946 0.064973 -1.060329 -0.170137 0.305515 -0.233904 0.273714 -0.020074 0.157659 0.177407 0.315389 0.141398 0.310919 0.421506 0.383068 -0.169066 0.144929 -0.354746 -1.065806 -0.980267 0.534721 -0.085274 -0.164586 -0.284798 -0.617300 0.710254 -0.493125 -0.328859 0.293504 0.361596 0.990028 -0.890532 -0.280164 -0.115075 -0.012085 0.406828 -0.583389 0.301561 -0.223926 -0.031921 -0.991312 -0.113325 0.066991 -0.426684 -0.107616 -0.643422 -0.407104 -0.604965 0.293686 -0.426732 -0.155972 -0.370822 -0.532863 -0.152754 -0.191899 -0.903897 -0.261524 0.174168 -0.430775 -1.214501 0.074019 -0.182363 -0.423413 -0.122332 0.208839 0.028202 0.117243 0.266259 -0.227194 -0.747012 0.430439 -0.156313 0.781157 1.172247
-0.306161 0.761760 0.733713 0.438186 0.212471 0.761794 -1.319285 -0.519056 -0.325002 0.844095 0.197234 0.260149 0.573508 -0.036232 0.192392 -0.061226 -2.250538 0.901896 -0.053989 -0.438123 0.005497 1.237626 0.839910 -0.957828 0.036612 -0.219271 -0.400446 -1.052601 -0.869593 -0.369656 0.282558 -0.004574 0.563146 -0.045226 0.004247 0.354052 1.104094 -0.650094 -0.042567 -0.218661 0.065414 0.030068 -0.615206 -0.501820 -0.181897 -0.699061 1.608366 0.929459 0.647567 0.585312 0.412955 0.774702 2.225585 0.518837 0.106956 -1.783341 0.275585 -0.614939 1.557990 0.292749 0.130595 1.031908 0.219854 0.005249 0.634404 -0.710054 -0.258808 -0.100552 0.298928 0.988063 -0.294575 0.728985 -0.295361 -0.864614 -1.694718 -0.011720 -0.599779 0.516659 0.894182 -0.904474 0.707088 0.266525 -0.390561 0.939620 -0.676893 0.643804 0.413364 -1.040560 0.456093 0.298198 0.535364 -0.658592 -0.108769 -0.932468 -1.604157 -0.660372 0.182760 0.734175 0.063920 0.156094
-0.414920 -0.533019 0.018021 0.030646 -0.684508 0.418891 -0.156041 -0.408332 -0.303287 0.032600 -0.707203 0.326871 -0.276282 0.007235 -0.146801 -0.453068 0.332670 -0.921980 -0.320786 0.371761 -0.072700 -0.015927 -0.615230 -0.324248 0.217028 -0.508767 0.086404 0.218010 -0.452768 0.312900 -0.092982 -0.672668 0.187471 0.100588 -0.640852 -0.592095 0.194240 -0.286308 0.254788 0.124965 0.323685 -0.512970 -0.067831 0.432518 -0.185176 -0.103664 0.223899 -0.128799 0.057259 -0.172184 -0.237076 0.088506 -0.483332 -0.413843 0.175177 0.330513 0.891949 -0.070530 0.023367 0.294647 0.243189 -0.281695 0.509764 -0.710809 -0.431362 -0.019607 0.439939 0.397431 -0.361012 -0.099098 0.175207 0.027919 0.552685 -0.387523 0.811986 -0.412871 -0.219613 0.180082 0.625749 0.075569 -0.004761 -0.964118 -0.158906 -0.676014 0.439847 -0.565581 0.047537 0.159680 -0.596104 0.326727 -0.024760 -0.574756 -0.795540 -0.174525 0.123090 -0.009568 0.241910 -0.113181 -0.586618 -0.336859
1.198340 -0.642123 0.054681 -0.107195 -0.761046 1.054588 0.406859 -0.681353 0.437458 -0.143676 0.159110 -0.510891 0.169013 -0.639134 0.509051 -0.051041 -1.427843 -0.567204 0.670957 -0.552171 0.175786 0.132333 0.550927 -0.420217 0.324240 0.341243 -0.306546 0.150024 0.221622 0.850478 0.040962 0.089996 -0.755377 -0.256106 -0.298184 0.878232 0.027715 -0.963489 0.081008 0.437130 -0.823257 -0.436739 0.259792 0.424657 0.184134 -0.452951 -0.236699 -0.161461 0.142498 0.732204 0.116903 0.024184 0.069759 0.125068 0.565528 0.669195 0.338989 0.042906 0.453596 -0.616431 0.107551 -0.238478 -0.463352 -0.227415 -0.588750 0.320331 -0.160787 -0.487877 0.247597 0.209064 0.051934 0.068849 0.097271 -0.211625 -0.608557 -0.566472 -0.291051 0.047137 -0.686958 0.270548 1.257134 0.706766 -1.261679 0.609004 -0.170519 0.651577 -0.046146 0.598320 0.350542 0.228120 0.202120 -0.566774 -0.521233 0.339897 -0.511512 -0.294671 0.045634 1.166487 0.601647 -0.655548
-0.539433 0.215740 0.320644 -0.164135 -1.220980 0.509978 -0.604162 -0.163185 0.663578 0.252736 0.745371 -0.129330 0.746756 -1.446420 0.914119 -0.082128 0.154295 -0.651656 0.165603 0.326097 -0.598955 -0.673244 -0.213684 -0.176047 0.157168 0.245609 0.687547 0.535958 -0.147275 0.584748 0.007331 0.000621 -0.795122 0.076741 -1.282781 -0.085433 -0.469191 -0.036009 -0.603590 0.227397 -0.347656 -0.544036 0.000166 0.556351 -0.090146 0.116945 -0.629705 0.237498 -0.002597 0.751129 0.113428 -0.329889 -0.763027 -0.196620 0.283596 0.873908 0.261258 0.238127 0.382120 -0.773290 0.151762 -0.120688 0.513091 -0.052663 -0.153766 0.526904 0.928728 0.493457 -0.037852 0.052109 0.077293 -0.808159 0.558009 -0.856218 0.623629 0.930078 -0.496574 0.036504 0.025581 0.075678 0.859771 0.347206 0.309886 -0.277257 -0.326535 0.201381 -0.494323 0.001061 -0.186221 -0.397036 0.399971 -0.277510 -0.178005 0.276079 0.300322 -0.791285 0.280179 0.813813 -0.829128 -0.268258
-0.511139 0.703889 2.220076 2.330758 0.299092 -0.719886 0.730332 1.152198 0.231066 0.439300 -0.146671 -0.100374 0.251317 -2.707134 -0.605065 -0.212474 -0.093176 0.208172 -0.521052 0.187409 -1.412576 0.330024 -1.353194 -0.847213 -0.133001 -1.358607 -0.677146 -1.171437 -1.138731 -0.289645 -0.351592 -0.522818 0.063072 -0.390015 -0.037074 0.129841 -0.057223 -0.120303 0.214616 0.656685 0.975012 0.350624 0.324661 -0.581439 -1.176815 -1.710419 1.643381 -0.655765 0.622021 -0.290585 -0.727397 0.649415 0.281469 -0.678304 -0.681568 -0.191701 1.824005 -1.143562 -0.484076 -0.304452 0.067215 -0.259770 0.158128 -0.462301 0.012040 -0.489393 -1.327530 -0.630379 0.018752 0.425332 -0.174005 -0.278559 -1.500014 -0.812300 -0.526327 -0.727330 -1.196859 -1.485160 1.217756 -0.313351 0.018767 -0.151569 -1.124652 0.166523 -0.067329 -0.189250 0.455050 -0.754600 -0.466391 0.000027 0.676997 -0.559263 -0.885844 -0.851384 -0.259345 0.071029 -0.498579 -0.093550 0.081631 0.997310
-1.721654 0.558006 1.028099 -0.072356 0.831674 0.185815 -0.439279 0.834640 -0.371258 0.766717 -0.019295 1.187199 0.030183 -0.110106 0.342655 0.206793 0.192654 1.459883 0.122412 -0.294960 0.055557 -0.934356 -0.143523 0.796566 -0.281413 0.153114 -0.372636 0.287663 0.302946 0.273432 0.005096 -1.252837 -0.040677 -0.335264 -0.040643 1.167404 -0.574705 0.122564 -0.166960 0.268526 -0.402380 0.819394 -0.665852 -0.097091 0.240668 0.913401 0.551849 -0.339475 0.765479 1.027785 0.857719 0.410350 0.241349 -0.058627 0.012873 -0.789187 0.573277 1.884284 0.981321 0.393608 -0.278547 0.069474 0.387144 -0.046171 0.304204 -0.157797 0.734483 0.942124 -1.007981 -0.114936 0.916885 -0.020121 -0.063252 0.109682 0.848266 0.325856 -0.222547 2.047118 1.184932 0.575104 1.029579 0.958112 0.996865 -0.251674 0.389375 0.032869 -0.105145 -0.458084 -0.284955 -0.647084 -0.437725 0.406434 0.833530 -0.235415 0.066653 -0.610186 -0.038290 -0.774673 -0.384888 -0.048686
0.237899 0.011619 -0.328940 -0.105809 0.168184 -0.330912 0.027073 0.041149 0.064974 -0.871753 -0.166143 -0.111025 0.296520 0.683759 -0.346890 0.304450 -1.019702 0.946599 -0.588139 0.489892 0.519645 -0.529491 -0.113049 -0.552913 0.284613 -0.792210 0.056634 0.504179 -0.422436 0.225986 0.176717 0.779557 0.836964 -0.224989 -0.280089 0.162243 0.717081 0.618350 -0.077729 0.015596 0.611230 0.361829 1.325865 -0.216908 -0.450970 -0.161593 0.316554 0.512922 -0.579102 -0.742230 0.018453 -0.953236 0.616704 0.485746 0.076814 0.300633 0.043661 -0.458124 2.194172 -0.606301 0.958238 -0.135456 0.197990 -0.204718 -0.794304 -0.280139 -0.537509 0.819651 -0.168196 0.266428 -0.588397 0.192552 0.276046 -0.195451 -0.680442 0.838159 -0.829003 0.077324 0.154730 0.729857 -0.068897 -0.179084 0.010008 1.161654 0.291150 -0.127517 0.367174 -0.682187 0.750946 -1.233717 0.509525 0.571828 0.383671 -0.188828 0.805498 0.528012 0.407324 0.170877 0.094849 -0.819487
0.656418 -0.946970 -1.049747 0.375727 0.790105 0.446486 0.178667 0.520224 -0.321883 0.114914 -0.179743 -0.851063 -0.022839 0.347189 0.324155 0.653851 -0.581525 -1.017121 -0.440810 -0.342981 -0.488133 0.462545 -0.133547 0.387064 -0.054488 0.180403 -0.362909 0.016147 -0.503288 0.005241 -0.104516 0.453580 -0.215273 0.520596 0.478803 -0.042619 0.181815 -0.683237 0.684110 0.334972 0.097434 -0.542086 -1.291395 -0.373332 1.084466 0.595634 1.103719 0.890891 -0.225264 0.511727 0.907834 0.299974 -0.074739 0.518229 -0.312555 -1.128779 -0.317749 -0.694123 -0.562566 0.762566 0.520318 0.813344 -0.193039 -0.043837 -0.737676 -0.201329 -0.230562 0.476545 0.368431 0.417685 0.267485 0.225762 -0.208463 -0.365184 -1.117614 -0.725478 -0.031396 0.557775 -0.554783 -0.373165 0.737869 -0.130194 -0.325374 0.536975 -0.344074 -0.280872 -0.282985 -1.035997 0.188689 -0.024362 -0.305052 0.261832 -0.020431 0.081085 -0.747956 -0.703155 0.045284 -0.101020 -0.241460 -0.354807
0.198171 -0.103932 0.371805 -0.659562 0.820073 -0.559095 0.490481 -1.044238 -0.341829 0.295049 0.025683 0.798936 0.558189 -1.654306 -0.010783 0.451365 -2.581587 1.370029 -0.325346 -0.052322 -0.270349 -0.033903 -0.393377 -0.640488 0.147131 -0.669017 -0.510184 -0.605653 -1.086331 0.673405 -0.015120 -0.958684 0.041712 0.651675 0.235831 0.873123 1.940677 -0.034765 0.635686 0.575266 0.334624 1.001606 -0.634335 0.127858 0.898252 -0.022688 1.217413 0.136651 -0.022975 -0.499529 0.431533 0.593696 0.555187 0.538199 -0.193072 0.093867 -0.427512 0.777763 1.234734 0.131253 2.203522 -0.201774 0.936881 0.198203 -0.446172 -0.265575 -0.631998 0.021649 -0.112831 0.471442 0.077425 0.271586 -1.815572 -0.843804 -0.571424 -0.333944 -1.082755 0.513795 0.829013 0.109131 0.923981 1.124676 0.065475 1.629070 0.789345 1.380545 0.999760 0.846679 0.601290 0.358392 -0.360193 1.114805 1.174680 -0.765176 0.169924 0.355618 -0.231168 -1.652181 -0.619784 -0.396720
0.114623 0.973425 -0.431512 -0.182825 0.209480 0.153631 0.061071 0.574105 -0.487064 0.415979 0.292189 -0.558867 -0.478421 -0.369657 -0.484329 -0.052184 -0.929938 -0.126648 -0.809453 0.019272 -0.323665 -0.667006 0.224939 -0.734853 -0.100884 -0.100670 -0.311678 0.101826 -1.157705 -0.626240 0.045638 -0.826784 -1.030203 0.882591 -0.021216 -0.021407 -0.098754 -0.152590 -0.332199 -0.019742 0.686320 1.028137 -0.762089 -0.072947 -0.662543 0.598856 0.385056 -0.232799 -0.586971 -0.304708 0.144667 -0.197887 0.365625 -0.662363 -0.675808 -0.613589 -0.048791 -0.405974 0.706357 0.185958 -0.489937 0.582518 -0.868333 0.438175 0.966926 -0.751177 -1.087664 -0.113521 0.154441 -0.050015 -0.206394 -0.135652 -0.389520 0.277470 -0.901733 -0.687186 -0.198459 0.654894 0.277770 -0.286855 0.853752 0.034936 0.200066 0.329490 0.658714 -0.793479 -0.158107 -0.721508 -0.312272 -0.371913 0.116050 -0.435313 0.762664 0.053889 -0.666777 -0.111894 -0.300300 -0.456899 0.365029 1.052563
-0.497973 0.484787 0.058380 0.469318 -0.538384 -0.785992 0.195462 -0.856024 0.377578 -0.415137 -0.095594 -0.464036 0.162992 0.176989 -0.386372 0.895257 -0.116760 1.170392 -0.142251 0.807917 0.073753 -0.491830 -1.173360 0.276291 0.457933 0.235669 -1.316783 -0.437656 0.395063 0.233532 0.124591 0.020212 -0.286482 -0.538877 0.259461 -0.398122 -0.555712 0.136360 -0.028429 0.614856 0.326282 0.288949 0.008950 -0.515997 1.045522 1.784129 0.026122 0.246521 1.278467 0.571569 0.415857 -1.021275 0.281351 -0.491695 -0.698696 -0.857199 0.419418 1.645408 0.918263 0.246100 0.248414 -0.091211 1.717516 0.462208 0.130327 0.214852 -0.766475 -0.173888 -0.695917 -0.176428 -0.420999 0.375097 0.029050 -0.601274 0.134480 1.170076 -1.775759 0.888503 1.085661 -0.473153 0.384192 0.832971 0.800690 -0.489830 -0.329802 0.706403 -0.358715 -0.297677 -0.273151 -1.342844 -0.457013 0.209306 0.311135 -0.123349 0.858762 0.890745 0.170520 -1.155438 0.344445 -0.885067
0.196092 0.175636 0.006427 0.077858 -0.184350 0.652282 1.125843 -0.477274 -0.198231 0.181524 1.585544 0.561697 -0.146301 0.632761 0.068135 0.297930 0.190006 1.583705 1.047198 -0.291064 0.212065 0.085192 0.073692 0.631681 -0.147972 0.195803 -0.228691 0.186848 -0.951943 0.311465 0.232039 -0.801984 -0.954975 -0.544959 -0.870018 0.188064 0.110905 1.292977 0.161187 -0.226978 -0.093838 0.566740 0.178565 -0.128741 -0.275652 0.441640 -1.174309 -0.431754 -0.603315 -0.029780 -0.333326 0.958071 -0.360032 -0.388587 0.035665 0.156360 -0.212912 1.165868 -0.519862 0.715734 -0.245702 0.130632 -0.111836 0.942640 0.541075 -0.584566 0.718619 0.085005 -0.945908 -0.325518 -0.007070 0.068361 0.948180 0.422957 0.072744 -0.198554 0.062447 -0.215234 0.535597 -0.442208 1.039137 -0.230563 0.900467 -0.286712 -1.180480 0.553325 0.337903 1.256452 -0.171570 -0.129494 -1.186869 0.134672 0.859340 0.340145 1.190663 -0.346658 -0.350779 -0.896748 0.542494 0.471915
-1.759951 1.781591 -0.194781 -0.649494 0.922281 0.189255 -0.043781 -0.315944 -0.280598 0.533757 0.150760 1.360746 -0.612323 -0.261077 -0.955527 0.823085 -0.712220 0.227250 1.316083 -0.256824 0.287610 -1.317369 0.309995 0.020908 0.406600 -0.294701 0.008841 -1.370670 0.048753 0.141909 -0.217954 -0.851917 -0.649357 0.862005 0.220578 -0.552490 -0.275268 0.378285 0.249968 0.382074 0.046406 0.374754 -0.277679 -0.005555 0.171017 -0.573835 -0.627644 -0.719269 -1.027790 1.224500 -0.062510 0.565151 -0.170487 0.453447 0.150935 -0.214029 -0.698176 0.687724 0.693236 0.305830 0.579528 0.790803 -0.685603 0.243890 1.851814 0.161264 0.149693 -0.013334 0.470643 -0.609311 -0.334145 -1.594606 0.304769 1.132492 0.094686 -0.324355 -0.197360 -0.276414 -0.206809 -0.203569 1.140949 1.075815 1.554974 -0.433838 -0.067170 -0.235148 0.170777 0.590831 -0.162834 -0.031314 -0.358888 -0.299576 1.191349 -0.812899 -0.565069 0.730598 -0.915673 -0.845772 0.419165 0.196851
0.037128 -0.326968 -0.770820 0.298434 -0.645946 -0.231815 0.206048 0.371196 0.306248 0.166920 -0.878920 -0.672846 -0.607315 -0.006498 -0.175692 0.078611 -0.015639 -1.087497 0.010777 -0.319755 -0.373531 0.400995 -0.433933 0.271801 -0.070878 -0.120176 0.254806 -0.048846 0.122938 0.210354 -0.137970 0.063526 -0.636875 0.736335 0.092683 0.114360 0.052761 -0.330804 0.410459 0.111635 -0.124409 -0.428052 -0.156416 0.368867 -0.767825 -0.221529 0.406708 -0.006067 -0.646050 -0.312513 -0.587911 0.348941 -0.543632 -0.013864 -0.071632 -0.218074 0.679994 0.124328 -0.715321 -0.374784 0.182008 -0.155831 0.180141 -0.365126 -0.578899 0.194020 0.571430 -0.103504 0.338783 -0.105495 0.310376 -0.080818 0.230338 0.185717 -0.121203 -0.171212 -0.038252 -0.326816 -0.320079 -0.647360 0.170984 -0.424415 -0.507934 -0.593688 0.020764 -0.191231 -0.220498 0.215156 -0.338988 0.324379 0.054012 0.003564 -0.387572 -0.059188 -0.183303 -0.055534 -0.499344 -0.076589 0.425828 0.728881
0.524195 -0.921460 -0.188133 -0.867967 -1.750207 0.521822 -1.456982 0.082837 0.448115 -1.265373 0.543342 -0.601451 -0.457596 0.230292 0.817688 -0.421510 0.010061 -0.669848 1.201675 0.561337 -0.429794 -0.322229 0.116799 -0.453663 -0.428932 0.430904 1.298796 0.508919 -0.712935 -0.234068 0.459288 0.872491 -0.099179 0.864428 -0.786305 -0.068246 0.013544 -0.176672 -0.358284 -1.207617 -0.810878 0.485092 0.522040 1.222427 -1.097772 -0.059446 -0.517457 -0.045078 0.124387 -0.232276 -1.551434 -0.537943 -0.880401 -0.237649 1.011218 2.167043 -1.257466 0.266241 0.064079 -0.374569 -0.517397 0.406078 -0.606752 0.092827 -0.125447 -0.086587 1.413910 -0.278937 1.648547 -0.135226 0.140544 0.722888 -1.104178 0.191309 0.691900 0.278752 1.381967 0.142974 -1.932344 1.375060 0.300383 -1.022293 -0.411720 0.434022 -0.166431 -0.767514 -0.281039 -0.475237 0.935143 -0.009017 -0.042470 0.264250 -0.111859 0.132479 -0.062943 -0.492491 1.174100 -0.136140 0.527366 -1.157786
0.980378 -0.883676 -0.284990 -0.126021 1.039775 0.621212 0.620502 -0.707696 0.326391 -0.314248 -0.348412 -0.152467 0.910726 -0.790563 -0.187723 0.142069 -0.260263 -1.592107 -0.423212 -0.663641 -0.200458 0.383250 -0.020104 -0.497348 -0.360057 -0.051213 -0.022846 -0.233294 -0.710843 -0.046278 -0.134270 -0.424673 -0.418079 -0.005239 -0.502739 0.240433 -0.794516 0.301150 -0.398675 -0.195259 -0.750597 -0.744793 0.671905 -0.173740 0.104668 -0.111651 0.187812 -0.113203 -0.435498 -0.806178 -0.342396 0.793500 0.144404 0.155867 0.026279 -0.693617 -0.751532 -0.856734 -0.657587 -0.376560 0.112286 0.384435 -0.452812 0.554146 -0.819304 -0.031291 -0.539055 2.331611 -0.148054 -0.148363 -0.522230 0.296980 -0.293237 -0.316590 -0.413814 -0.384932 0.008164 0.672354 0.021223 -0.168349 0.088797 -0.633313 -0.408952 -0.548390 0.328936 0.176864 0.283069 0.649922 0.331196 -0.197360 0.843924 -0.161820 -0.553062 0.184941 0.691945 -1.003068 0.202674 0.262154 -0.367462 0.776716
-1.440461 -0.039121 0.262042 0.689256 0.388998 -0.775458 -0.637553 -0.374747 -0.491267 0.460984 -0.721524 0.848418 -0.365709 -0.516625 -0.042659 0.358917 0.290360 -2.197291 -0.002752 0.359993 -0.536737 -0.324841 -0.411945 -0.078100 0.492523 -0.248389 0.009436 -0.538068 -0.059012 0.152607 -1.164439 0.608258 -0.132059 1.266125 0.398742 -0.564803 -1.234740 -1.044763 0.703422 0.022723 0.324899 -0.197458 -0.758476 -0.056004 0.339616 -0.663047 0.088684 0.243194 -0.915995 0.173064 0.433596 -0.517626 0.076798 0.225755 -0.758869 -0.114196 -0.387208 -0.934613 -0.794905 0.271254 0.579109 0.002090 0.099406 0.487683 -0.302834 0.028896 0.118434 0.266910 0.746277 -0.066295 -0.258095 -0.631857 -0.453919 -0.494772 -0.167700 -0.236740 -0.279183 -0.166435 -0.572854 0.636463 -0.729225 -0.258727 0.754613 0.758661 -0.040646 -0.978412 0.119513 0.504762 -0.289848 0.814308 0.091371 0.137624 -0.335366 -0.742322 0.326103 -0.092258 -0.693678 -0.832759 -1.431325 -0.477166
0.485942 0.434103 0.471665 0.332488 0.623247 0.188572 -0.146342 0.350507 0.285209 -0.111902 0.299313 -0.138405 -0.728595 0.021422 1.606017 0.132582 -0.787509 0.238578 -0.885108 -0.328201 -0.390711 -0.029460 -0.111878 -0.492585 -0.755608 -0.071167 -0.347626 -0.115511 -1.356214 0.201573 0.424084 0.110821 0.450077 -0.478327 -0.648228 -0.319604 0.972939 0.082796 -0.469186 -0.093837 -0.551253 -1.019267 0.497457 -0.712829 0.494949 0.698311 -0.017945 0.903801 0.280904 -0.278841 -0.388786 0.217281 -0.590831 -0.243819 -0.781942 -0.709498 -0.438812 -0.446383 0.872375 0.406067 0.108997 -0.007747 -0.039039 -0.174265 -0.376469 -0.746967 -0.740153 0.423414 0.177820 0.827897 -0.589424 0.359584 -0.715150 -0.317700 -0.757797 0.143046 -1.088197 -0.510463 0.384076 -0.213453 -0.052309 0.533792 -0.864448 0.783798 0.063771 1.377957 -0.322580 -0.191219 -0.320477 -0.082996 -0.063520 0.538075 0.620272 0.411352 -0.234914 0.017695 1.139325 0.100784 0.021317 -0.209546
-0.258424 -0.237235 0.401401 -0.526249 0.402554 0.564334 -0.153630 0.298372 0.027043 0.882931 -0.123369 0.632009 -0.046542 -0.702416 0.089434 -0.290095 0.136263 -0.899249 -0.469823 -0.421099 0.032602 -0.302460 0.682432 -0.134915 -0.496285 0.372656 -0.315126 -0.230092 -0.086569 0.032271 0.583852 -0.016899 -0.359473 0.019660 -0.104463 -0.036814 -0.494198 -1.017262 -0.221660 0.681212 0.248561 -0.767717 -0.249024 0.321615 -0.436498 0.676435 -0.383481 0.025584 0.377577 0.375360 0.480504 -0.514412 0.042841 -0.372501 -0.092005 -0.487498 0.432790 -0.079160 -0.278950 0.135433 0.254178 -0.660984 0.519144 -0.328532 -0.251439 -0.047623 0.200308 0.538837 -0.004451 0.322490 0.025067 0.201357 0.599171 -0.800151 -0.379107 0.310268 -0.103542 0.531687 0.439326 -0.202914 -0.823077 -0.111994 0.349544 0.561078 0.222911 -0.825658 -0.325371 0.124097 -0.460945 0.464033 -0.271436 -0.233834 0.399113 0.325033 0.247666 -0.680711 -0.255235 0.068438 -0.870854 -0.191487
0.312266 -0.119555 -0.093607 -0.455916 0.231429 0.512487 -0.606709 -0.972834 0.666802 0.791956 0.466004 0.474345 0.519633 0.649599 0.407651 -0.454686 -0.148178 1.076354 0.395486 -0.607423 -0.180576 -0.215045 -0.866954 0.165714 0.284523 0.485946 -0.620433 0.253234 -0.562128 0.457717 0.159085 -0.660655 0.477587 -0.431873 -0.186906 -0.600119 0.759063 -0.597478 0.061282 -1.130248 -1.349876 -0.928579 -0.408887 -0.495121 0.070144 -0.406117 -0.895019 0.163791 0.579022 0.247044 -0.417112 -1.084462 0.076188 -0.012300 -0.781900 -0.871236 -0.143671 -0.175004 0.705011 -0.878323 0.808666 -0.633610 0.272389 0.669186 -0.160583 -0.253038 -0.606077 -1.188674 0.522855 0.517553 -0.288355 0.532382 0.090708 -0.619227 -0.790407 -0.029387 -0.474225 -0.363271 1.301953 0.103532 -0.026704 0.246361 0.004839 1.295855 -0.955533 1.574076 -0.124798 0.561940 -0.202270 0.687670 -0.667633 1.212216 -0.232051 0.469974 0.566737 0.664527 0.077180 -0.658013 -0.449629 -0.816101
-0.389539 0.467720 -1.397748 -1.037343 0.438305 0.329470 0.252651 -0.171787 -0.247839 -0.081501 0.001542 -0.051634 -0.538969 0.390424 0.553990 -0.149690 0.919566 -1.002305 0.598151 -1.062098 0.632197 -0.876211 1.289119 0.097626 -0.444533 1.095830 0.274218 0.826609 0.914424 -1.200413 -0.169770 0.016038 -0.338570 -0.358519 0.017272 -1.113160 -0.869885 0.020256 -0.019850 -0.921651 -0.804323 -0.749272 -0.380597 -0.076140 -0.483057 0.056203 -2.276784 -0.226360 -1.388407 0.283809 0.035855 -0.269917 -0.889312 -0.561574 0.801459 0.304833 -0.958185 0.013316 -1.431982 -0.754988 -2.149664 -0.761302 -0.725856 -0.335543 -0.014459 0.078279 -0.236041 -0.837762 -0.205887 -0.284759 -0.240460 -1.707080 1.357064 0.980179 0.229569 -0.192457 0.174806 -0.508253 -0.341579 -0.372778 -0.174227 -0.142267 0.402527 -1.156686 0.078455 -0.436034 -0.779934 0.856937 -1.472203 0.442787 -1.095531 -1.446218 -0.384879 0.343264 0.781825 0.395631 -0.707020 0.165549 -0.813502 0.271314
0.451628 0.014724 -0.442677 -0.097862 -0.161465 0.433655 -1.097954 0.086706 0.150186 -0.482363 1.238536 0.415026 -1.050132 0.017004 -1.395266 0.275445 0.397765 -0.117007 0.475123 -0.161583 -0.729950 -0.161187 0.164887 -0.413905 0.928388 0.606613 0.066813 0.203804 -0.545012 -1.096355 -1.113811 -0.155837 -1.309246 0.318097 0.209591 -0.334941 -1.743900 0.790028 0.181998 -1.508674 1.443225 0.253205 0.348923 -0.038542 1.081454 -0.445724 0.229408 -1.556524 -1.027978 -0.300453 -2.008238 -0.871219 -0.117663 -0.743251 0.321282 0.628544 -1.586234 1.243489 -1.596557 0.159697 -0.996746 -0.590710 0.572195 1.490961 -0.236985 -0.112408 0.203939 -1.030887 0.119085 -0.134781 -0.642884 -1.377056 0.257676 2.776428 0.979710 -0.773625 0.195330 -1.762929 -2.524267 0.083864 0.645272 -1.626368 0.438002 -0.790645 0.020524 0.186890 -1.252064 0.117430 -0.361090 0.113987 -1.108782 -0.426357 -1.508837 -0.016021 -0.095120 0.584315 -0.446251 -0.673726 -0.152554 0.923230
-1.067212 -0.165159 -0.872823 -1.326035 0.616559 0.489477 1.496683 -0.131731 -0.498403 -0.505217 -1.300523 0.096749 -0.617610 1.821221 -0.206365 -0.138060 -0.672106 0.565006 -0.047349 0.338620 -0.605475 -1.489580 0.701112 0.905567 0.223389 0.639827 -0.315118 -0.189401 -0.433804 -1.304335 -0.271100 -0.769670 0.164068 0.299263 -0.051641 -0.310558 0.253880 0.701241 0.318388 0.595666 -0.678953 -0.991554 -0.039764 0.600033 0.154093 0.076543 -0.037673 -0.099972 -1.194481 -0.478639 -0.853840 0.060690 -1.348499 0.163481 -0.275053 0.310175 -0.401739 1.031020 -0.613802 0.054385 -0.922724 -0.533112 0.431521 0.946505 -0.028769 -0.303165 0.094965 0.602698 -0.197871 -0.236647 -0.396988 -1.014116 0.829436 0.832696 2.231127 -0.629689 0.572228 -0.044786 0.074378 -0.965292 0.171682 -0.893165 2.428956 -0.618226 -0.137826 0.500103 0.005035 0.190786 -1.180113 0.518149 -1.920636 0.218717 0.801849 0.596985 1.152119 -0.116247 0.146313 -1.701327 0.827254 0.404611
0.035951 0.022691 -0.168797 0.594383 -0.069158 0.082038 -1.519922 -1.082142 0.472185 -0.196574 0.005888 -0.760463 0.465897 -0.315002 0.641817 -1.005299 1.614526 0.873572 -0.357701 -0.544705 0.770620 0.818014 0.562525 -0.242823 0.029800 -0.373718 -0.200015 0.377709 1.637409 0.470126 0.550847 0.666202 0.484716 -0.659351 -0.518950 0.255384 0.493648 0.524273 -0.432803 -1.143074 -0.134198 0.555370 1.531068 0.475801 -0.156859 1.224760 0.459374 0.877910 0.640423 -0.989227 0.188516 -0.604988 0.078388 0.234162 0.415042 0.856793 0.586799 0.557285 1.300716 -1.106155 0.250967 -0.351723 0.216812 -0.797334 -0.147831 0.040710 0.645695 0.014706 0.509761 0.282172 -0.061574 0.405695 0.533194 -0.711806 -0.976641 1.539901 -0.095020 0.604911 0.686123 1.301653 -1.361941 0.021673 -0.222260 0.397059 0.240194 -0.919714 -0.779958 -0.334101 0.309870 -0.704990 0.403791 -0.284182 0.174683 1.000296 -0.011160 -0.151738 -0.024505 0.708405 0.275990 0.018525
0.809635 -1.194510 -0.263856 0.135212 0.025190 -0.899488 -1.371233 1.339880 0.264323 -0.522404 0.181058 -0.384733 -0.227753 -0.221585 -0.708155 -0.177162 0.629548 -1.861023 0.954653 -0.907342 -0.759401 0.665584 -0.287353 -0.041496 0.404769 -0.032074 -0.023353 -0.158540 0.260977 -0.972880 -0.942971 0.136294 -0.352932 -0.110059 0.365609 -0.291894 0.386657 0.201178 0.276246 -1.156764 0.170623 -0.546745 0.197118 -0.006355 -0.776591 -0.007986 0.631337 -1.172049 -0.886084 -0.694527 -0.531413 -0.084545 0.148234 0.265479 0.165986 0.589390 -0.637323 -0.867401 -0.996112 -0.453552 -0.681860 -0.277184 -0.732503 -0.219784 0.941787 -0.612005 0.454624 -0.158783 1.108633 0.084993 -0.042420 0.379377 -0.036239 0.025948 0.680130 -0.101070 1.889888 -1.055454 -1.146002 0.799257 -1.437021 -0.851367 0.264333 -0.225664 -0.234651 -0.874517 -0.261717 0.072174 -0.213256 0.667689 -0.653768 -0.523227 -0.949430 -0.068740 -1.205619 0.027597 0.304506 -0.374559 -0.332380 -0.306760
-0.769627 0.279111 0.406517 0.179132 0.405116 -0.266853 0.136310 0.390638 -0.314855 0.471059 0.220614 0.512962 -0.314731 -0.150392 -0.132696 -0.028536 -0.074049 0.336184 -0.357588 -0.019560 -0.400992 -0.162472 0.037324 -0.044819 -0.741376 0.381308 -0.162766 -0.556724 0.253181 -0.266223 -0.563181 -0.575559 -0.012912 0.695178 0.241298 0.193913 0.034442 0.431813 0.111980 0.792627 -0.975128 -0.041836 -0.388731 -0.243555 -0.050807 -0.360501 1.099959 0.094020 -0.654990 -0.352656 0.453500 -0.195096 0.581769 -0.167920 -0.566064 -0.493871 -0.520844 0.363342 0.661155 0.488722 0.823109 -0.141234 0.056453 0.583896 -0.274894 0.075137 -0.608545 0.682846 0.532927 0.648478 -0.569179 -0.475020 -0.405831 -0.208339 0.458812 -0.235506 0.055958 1.243051 0.467060 0.023461 0.425456 0.247581 1.218945 0.531799 0.712580 0.097925 -0.360870 -0.514251 -0.169823 0.098675 0.253869 0.093383 -0.030431 0.676075 0.942356 0.175385 -0.348396 0.016817 -1.079147 0.351208
-0.469033 -0.130175 -0.098739 0.391278 1.462170 0.754194 -0.867784 0.706348 0.181185 0.018264 -0.704857 -0.548876 0.180585 -1.244430 -0.723259 -0.527005 0.167833 1.620810 -0.971092 -0.108096 -0.723720 0.802754 -0.381845 -0.518111 -0.872472 -0.472021 -0.673566 -0.544408 -0.923902 -0.314621 -0.500882 -0.516282 0.199609 -0.100336 -0.312464 -0.444497 -0.738755 -0.539725 -0.355854 0.190220 1.248001 -0.495067 0.281381 -1.133899 -0.985528 -0.516429 0.825456 -0.085672 0.810053 0.059173 -0.367129 0.090283 -0.861157 0.015972 -1.277480 -1.654215 0.782871 0.239276 -0.119660 -0.058402 0.885227 -0.051767 0.171859 -0.578220 -0.555343 0.166566 -0.614871 -0.069201 -0.545257 -0.767621 -0.197074 0.554922 0.072406 -0.578779 0.425545 -0.311745 -0.733035 -0.108860 2.645663 -0.546846 -0.397214 -0.490816 -1.196066 -0.197616 -0.227913 0.119348 0.639133 0.552437 -0.296938 0.011497 0.334133 0.163533 0.352147 -0.266953 -0.535740 -0.799706 -1.010542 -1.076748 0.014787 -0.290037
0.439338 0.211661 1.002865 -0.423301 0.274064 -0.413303 -0.901131 -0.327468 0.510263 -0.308023 1.119180 -0.471070 0.110746 -0.442157 0.694233 -0.547813 0.555311 -0.787694 0.248561 -0.412524 -0.399068 1.318280 -0.960361 0.099124 0.360078 0.192723 0.578700 -0.123570 0.095889 0.058031 -0.418054 0.383181 -0.363232 -0.633820 -0.436928 0.338246 0.683873 0.565838 -0.663981 -0.352395 -0.300053 0.098179 0.557194 0.687395 0.411723 0.808621 1.076812 -0.180743 0.025932 -0.200073 -0.103589 -0.432365 -0.008439 -0.643299 0.246946 1.152652 -1.263751 -0.160405 -0.138337 0.141900 0.142050 0.134182 0.331628 0.352491 -0.294568 -0.291594 0.241445 -0.018001 0.984196 0.023411 0.675455 -0.057720 -0.280603 0.151404 -0.016133 1.577134 0.994266 -0.263175 -0.008815 1.298290 0.120179 -0.690311 -0.394842 -0.218280 0.793451 0.108757 0.007088 -0.076648 0.373181 0.159659 0.707504 -1.038304 0.074496 -0.124435 0.110908 0.075455 -0.107484 0.435713 -1.455145 -0.075855
-2.065644 0.661523 1.256966 1.001940 0.915829 -0.637824 1.013313 0.933901 -1.371824 2.256660 -1.059187 1.056233 -0.067735 -1.341037 -1.315881 1.058306 -1.097263 1.031864 0.397721 -0.462439 -1.754731 -0.383222 -0.275875 -0.224027 0.465218 -0.401358 -0.946258 -1.786458 -1.180697 -1.236840 -1.082342 -1.429096 -1.606911 0.909213 1.584919 -0.313349 -0.279826 -1.145373 0.472796 1.615055 0.083884 0.804738 -1.732715 -0.585905 0.959731 -0.343870 1.005300 0.334435 -0.153135 1.913116 0.297235 0.682956 0.797985 -0.253976 -0.275780 -1.344891 1.068661 0.815244 0.422998 1.248095 1.563610 -0.088437 0.485721 0.826140 1.368950 0.060439 -1.214073 0.364532 0.409320 -0.749902 -0.441834 0.497418 -0.915167 0.144200 0.223602 -1.257422 -0.267363 -0.471790 -0.818300 -1.558206 2.051870 0.686582 1.001195 0.264253 -0.282371 1.199539 -0.425864 0.318570 -1.110246 0.962601 -0.712551 -0.581462 0.688014 -0.464093 -0.019360 0.253041 -0.405346 -0.427530 -0.184802 0.461311
-0.406295 0.433121 -0.914036 -0.617981 0.162650 -1.020119 -0.109377 -0.349091 -0.157091 -0.165023 1.450898 -0.302118 -0.206572 0.484706 1.953477 0.137137 -0.108860 2.637397 0.266764 0.652446 0.817855 -0.292705 0.658921 -0.511556 -0.012723 0.644659 -0.681004 0.006204 0.554647 0.740249 -0.057648 -0.034001 1.026575 -0.204383 -0.329173 0.035366 -0.092276 0.342686 0.107775 -0.409518 -1.098949 0.344784 -0.678255 0.405890 1.096374 1.311960 -1.266702 0.569166 0.742016 0.365316 0.945893 -0.102047 0.628949 0.454919 -0.460682 -0.423691 0.014863 0.720193 1.597317 -0.306577 -0.138013 1.154229 -0.606570 0.182868 0.580698 -0.636320 0.167472 -0.343359 -0.658202 0.660170 -0.875917 0.332372 -0.723941 -0.199695 -0.854439 0.996775 -1.467199 0.470122 0.519263 -0.159167 0.815565 1.942970 0.464050 0.767196 0.166999 1.734620 -0.216748 -0.621437 0.634990 -0.134863 0.558348 1.119244 1.866286 0.599879 -0.018177 1.060838 0.520766 -0.178351 1.030564 -0.653090
